md5_num v1 v2 v3 v4 v5 v6 v7 v8 v9 v10 v11 v12 v13 v14 v15
5b5e6ee491b0424c3a8e850bf69010bc 0.56826156 -0.53537357 -0.65401167 0.4229251 -1.2768735 -0.15096654 -0.3370018 0.16649798 -0.16593345 0.7500822 0.50790274 -0.42163852 0.13936396 -0.5868512 -0.62323344
3ee9f102c1aa3eb768a22cc3b2c17ada 0.5850553 -0.54317504 -0.6646794 0.4077579 -1.3243833 -0.13456193 -0.379041 0.16189551 -0.20968096 0.7711027 0.46063653 -0.40100032 0.11262413 -0.5266656 -0.616568
14f4961328048d808533866174a8c305 0.5763475 -0.5094809 -0.61502904 0.4236962 -1.1665591 -0.13963668 -0.36121562 0.18420327 -0.18212654 0.8306025 0.541357 -0.50766087 0.16136439 -0.6018364 -0.58597624
f6fef3745a4963142276ce3957cc80f7 0.57292515 -0.57975763 -0.6086634 0.44315302 -1.2643648 -0.1466695 -0.3484542 0.20782377 -0.1496157 0.75111395 0.4537247 -0.4694943 0.11344367 -0.50968605 -0.550331
89fa3ed0130165498378d7bd40eab996 0.5648298 -0.53415316 -0.62200904 0.42859158 -1.2484424 -0.15354787 -0.36750984 0.17743161 -0.21007553 0.82476026 0.49971792 -0.43233976 0.15159056 -0.5550675 -0.5713054
dcc89038ba0914932a11f11a609b9055 0.6015151 -0.47385728 -0.6435731 0.41623542 -1.2298324 -0.1330315 -0.36945042 0.118131414 -0.18260096 0.7467274 0.45824605 -0.45429903 0.14417417 -0.51812124 -0.5795332
8d9cfcc449501dc36d08436027415e1b 0.54837984 -0.55829746 -0.6353366 0.41126588 -1.2111573 -0.16313304 -0.3621138 0.17905962 -0.20348746 0.7817543 0.53391224 -0.4548906 0.13826026 -0.5920124 -0.61192626
f554b0865315df90cd3152787ee20ddf 0.5845989 -0.53415304 -0.58781165 0.41780704 -1.1948961 -0.13877633 -0.33325216 0.13209994 -0.18777423 0.82981217 0.5292597 -0.43336985 0.13164236 -0.5674151 -0.6009293
80d74eaae837bfe7b78fcf6737e88ec4 0.57766974 -0.5173709 -0.6094026 0.41319683 -1.1967831 -0.16925058 -0.37716353 0.19098575 -0.18332711 0.7889151 0.48568356 -0.40391874 0.12120245 -0.5432508 -0.57147145
e6cb1a2d6d16eca3bc803710573b54c5 0.5561389 -0.5484842 -0.63696873 0.41924962 -1.2380139 -0.17065391 -0.35987425 0.19488631 -0.19155431 0.7963156 0.48768973 -0.45563647 0.12833974 -0.5805352 -0.6054546
d43a7d7219cee417dbd9f54d7b044b00 0.6013998 -0.47547814 -0.62170476 0.4547842 -1.2731179 -0.10498054 -0.37291205 0.16911723 -0.20661074 0.7955002 0.52293843 -0.41041407 0.11847931 -0.5285603 -0.5818287
82a2b629fda61d6b9c05b62fd3345143 0.60619265 -0.53141767 -0.61374277 0.4386896 -1.2238954 -0.17571092 -0.33761302 0.13782544 -0.21977153 0.7627579 0.52281964 -0.44944957 0.14868744 -0.5395342 -0.59859884
06a8b45c719688f903b9433d879286a2 0.5802601 -0.5334883 -0.6501605 0.35440612 -1.2474221 -0.18217315 -0.3714492 0.16305597 -0.17479719 0.7658945 0.45473504 -0.44909066 0.1308146 -0.53653646 -0.585355
a5b15fdc3104b30a1a0b127f766aaffd 0.55418915 -0.5312739 -0.61120135 0.4497698 -1.2736176 -0.1483976 -0.35096738 0.18721443 -0.14439894 0.7693625 0.52886665 -0.42512676 0.14799003 -0.5383684 -0.60133755
41f4e7275b8f046a31843a5773178f7e 0.5495356 -0.55650747 -0.63291824 0.39320135 -1.22052 -0.16425247 -0.35266677 0.17038727 -0.14367853 0.78667 0.5212214 -0.4543633 0.1143337 -0.55390525 -0.5964543
ba64a83bf984bc56ef4fd1deb1a74c26 0.6129749 -0.53588635 -0.6303405 0.38879666 -1.218504 -0.16182297 -0.336993 0.14537102 -0.18294428 0.7964873 0.49749568 -0.46874258 0.11678234 -0.53766406 -0.5919588
fa9b654b1abd1a6a672f6611a8aab88f 0.55874085 -0.5566578 -0.64536196 0.38916823 -1.2112265 -0.17372468 -0.3633307 0.13596858 -0.18163916 0.78045386 0.47044513 -0.4009749 0.12253907 -0.53180844 -0.5833111
032349839272a966f5784974897edbeb 0.618423 -0.53225046 -0.63386506 0.42241594 -1.267432 -0.13590269 -0.3633198 0.14638452 -0.17942984 0.7773704 0.49425095 -0.41518298 0.1030381 -0.54441386 -0.59816617
6a490624ef9c40938bf88d5a4f26d1ca 0.5945999 -0.54009545 -0.6257567 0.3921449 -1.2168133 -0.15601832 -0.35517892 0.15604703 -0.1727684 0.8066799 0.47903425 -0.4236797 0.11011035 -0.57868004 -0.6012744
cf3c143d3cf29d944e4a391b3db3fa7d 0.55777955 -0.5470048 -0.63403016 0.43186998 -1.206837 -0.1413489 -0.3469249 0.16777746 -0.18146837 0.80360794 0.4870553 -0.4566579 0.13444887 -0.56232333 -0.5407521
afda0e0622430382ec94661f925d76cf 0.51603615 -0.5493734 -0.6434933 0.4003424 -1.2254938 -0.17260863 -0.38281497 0.1681843 -0.22170536 0.78892493 0.5001245 -0.39459056 0.09636796 -0.5514725 -0.60201144
e87653dfdb0cb9a700f8992aeab469dd 0.5550913 -0.5224897 -0.6358953 0.36655867 -1.2531968 -0.1565637 -0.3936133 0.17143966 -0.19214976 0.77099156 0.4714751 -0.39400476 0.12755243 -0.5255141 -0.60978425
9451d2de568328ff1b8b4dd2c9e70dbe 0.57241595 -0.5465925 -0.6711717 0.41065827 -1.2387547 -0.15037464 -0.36708233 0.15918736 -0.23102899 0.8392581 0.50130504 -0.43291336 0.080584 -0.54759896 -0.5930581
0e894141c1900cbb11cda6ea971d79e6 -0.38761425 0.08820348 0.7724073 -0.024665155 -0.57437557 -0.5368694 -0.34804234 -1.4472815 0.4650049 0.30628645 0.29652748 -0.009369449 0.27707526 -0.8298468 0.60125047
1718c7adb0601865f85f2029ab69fc5f -0.33828324 0.109521545 0.79268986 -0.085874654 -0.6058014 -0.57791334 -0.37048724 -1.3597869 0.5301908 0.23858856 0.2998082 0.035426598 0.29598343 -0.8272619 0.6399576
18f92394dcca898f4e1a755f9666e2b5 -0.35707885 0.12547073 0.7787157 0.021301568 -0.6099658 -0.55257064 -0.36227822 -1.4005352 0.492015 0.2485672 0.34362632 0.05940326 0.29084894 -0.8268087 0.6412273
bd4e7dc4603f764d0c34930403549996 -0.34455055 0.15921028 0.79005826 -0.04267486 -0.6124119 -0.5444472 -0.33904892 -1.3458432 0.50473267 0.26138008 0.34578156 0.050378807 0.30793425 -0.8155422 0.6116648
cec8389c73d97527d8f8581a8a8523fe -0.38940242 0.0776529 0.7518437 -0.023630477 -0.57762414 -0.52714115 -0.35708493 -1.4075499 0.48117238 0.27633512 0.28512254 0.035988227 0.25655752 -0.8484487 0.62412834
933d4bd883b617965a69dadb4eea5ad0 -0.39340305 0.09791382 0.77769375 -0.031093268 -0.57179177 -0.60607255 -0.39595652 -1.3429799 0.46613467 0.25723413 0.3686116 0.07492602 0.30891532 -0.8722248 0.6288615
bd5e3bfde89191479a22d4caba12cf79 -0.36890844 0.077178136 0.75373274 -0.07276667 -0.5800463 -0.57812506 -0.37824705 -1.4128704 0.50545406 0.25261974 0.34076044 0.015896339 0.28173366 -0.8494546 0.59043384
2e94805a4284105dbea525a56ec98e90 -0.38118264 0.0705161 0.75729257 -0.04940453 -0.58946055 -0.55689204 -0.39720502 -1.3929741 0.47061437 0.2759205 0.27986372 0.041269995 0.27105102 -0.81000495 0.60673165
3e55f9e42755d8c863c49928c8a4a9ef -0.36049062 0.10118385 0.7573251 -0.007294303 -0.6186549 -0.5466098 -0.37836707 -1.4238963 0.45511746 0.26187694 0.28844613 0.0648467 0.31017017 -0.8430655 0.6403686
5f3f869d615f8af4aab55f15ad7ec103 -0.402147 0.1462325 0.7919948 0.00741969 -0.6195993 -0.52972317 -0.33478832 -1.3671114 0.4487375 0.27300265 0.33499908 0.026175803 0.32452947 -0.830045 0.6095831
1a1d580c1d0d4a06a2e589850ce6b969 -0.31111544 0.1237893 0.7919115 -0.06840111 -0.5605707 -0.5659375 -0.40922466 -1.3474097 0.53733116 0.23860036 0.3148984 0.019639071 0.2778905 -0.86389124 0.6430638
3cdb80f7bc2d59d561014444dd6f606b -0.3566359 0.11248035 0.78496724 -0.078776196 -0.5887735 -0.5945842 -0.4264703 -1.32315 0.529414 0.2195797 0.3363272 0.038566723 0.28276706 -0.84567684 0.65879333
419d94fa97156e48082727656f098e8d -0.384201 0.14805661 0.7819645 -0.043955572 -0.5659204 -0.56595784 -0.3698336 -1.3837833 0.48441583 0.28637463 0.3635596 0.051697858 0.31919855 -0.8544506 0.6085053
22f541c4091e22bf79bbe81e5f5af6fb -0.36157522 0.13084505 0.776296 -0.040216267 -0.58504003 -0.5592567 -0.36396757 -1.3564755 0.45309538 0.22391365 0.35288668 0.030530984 0.2999444 -0.8464718 0.6044942
833f3c466eab1befaf3ba965d046bfc8 -0.37700814 0.10395184 0.78268147 0.010602596 -0.59866506 -0.5736166 -0.36156958 -1.366177 0.47879544 0.25873426 0.33511534 0.07583894 0.28711978 -0.82972276 0.6737537
e7dda1746b655d69cb48c30871021720 -0.36729428 0.123885565 0.78539985 -0.06700277 -0.5742516 -0.59832996 -0.37006655 -1.3459375 0.5259206 0.24577527 0.33265418 0.05566719 0.30963093 -0.8878065 0.6000458
ebaff9951615bb369eb77d7a43d68e4d -0.3400213 0.1429066 0.7689622 -0.058261156 -0.60220915 -0.5539466 -0.40064776 -1.350863 0.5472502 0.25784302 0.30737033 0.053597286 0.28590024 -0.8303494 0.6302285
651d2149070f7846ef3bff5003889333 -0.38977274 0.074406005 0.798855 -2.6036281e-05 -0.60294616 -0.5888386 -0.40948963 -1.3774012 0.47988358 0.23772702 0.37818635 0.09890678 0.29503518 -0.8399394 0.61833394
3077a9613feb9424a9cacda69ce81855 -0.38913167 0.11818265 0.7485325 -0.033273064 -0.57951045 -0.61238146 -0.37055522 -1.2979589 0.43986818 0.23868409 0.35167587 0.12564982 0.30542463 -0.88470566 0.59512115
b38b58fc7690d9438f11346305f4e254 -0.3685888 0.09945147 0.7385879 -0.06807434 -0.5711298 -0.6225441 -0.39609453 -1.4216765 0.45817325 0.26609674 0.29866648 0.10007009 0.275977 -0.85782284 0.60993576
1bbfd947b7c75f24eaf829c88b338521 -0.37228763 0.104928605 0.73478305 -0.02967612 -0.59181124 -0.5946494 -0.3701656 -1.3733788 0.46920896 0.21810064 0.34579834 0.07696248 0.2811534 -0.8393729 0.630507
49278197e63d96169436ae5241c362e6 -0.3961736 0.10754191 0.78092426 0.001568745 -0.60471153 -0.5751873 -0.36674663 -1.3541303 0.4587829 0.25914976 0.35265553 0.09537026 0.30900073 -0.8593303 0.59664255
34a9f699962aca8e46b3b4d1c12d9efe -0.38576877 0.10095448 0.75455415 -0.021632608 -0.56102824 -0.6217956 -0.3958883 -1.3633131 0.4899683 0.23140466 0.32125443 0.06079328 0.2706276 -0.88647425 0.6189298
d965d24b04210a45386cf17eb68e54fd -0.521949 1.5449383 -0.8106553 -0.39055824 -1.0925242 -1.3251728 0.6296538 0.27963486 0.26779804 1.029964 0.08864369 -0.4622469 -0.7350002 -0.30352885 0.713903
ecc871a44ad857a6d2d6ae564a66e1b8 -0.5028531 1.575517 -0.7660464 -0.4122794 -1.0434216 -1.2683587 0.55056876 0.23716792 0.29807785 1.008662 0.081383325 -0.49141863 -0.7325007 -0.28786522 0.71742874
74eeb0f69f4a3b5be14e84c50ccdad83 -0.52547973 1.5314273 -0.7815067 -0.38524 -1.0353276 -1.2515767 0.62320745 0.21180323 0.2606529 1.0549977 0.10478362 -0.41569665 -0.73332 -0.32304925 0.6580416
36f997c803c3deeb5956805fa1c08816 -0.48707524 1.5578331 -0.78680587 -0.45725995 -1.0818971 -1.2899724 0.5200107 0.23107103 0.24112804 0.9854195 0.044648807 -0.36557007 -0.73685706 -0.26446778 0.71641004
7243a5ed14b9c1ac74373c0c1d4cf8c6 -0.48129475 1.5277089 -0.79885024 -0.37183493 -1.0317236 -1.2874331 0.54786474 0.22106755 0.25911963 1.0155487 0.09228638 -0.4029927 -0.754711 -0.2705107 0.75886196
9af08bdb963bd4e44a2fdacb46f5a52e -0.5297268 1.5766023 -0.80227864 -0.428129 -1.0873733 -1.3281095 0.57127696 0.2587888 0.23552223 0.98617995 0.07213506 -0.42656112 -0.7215606 -0.28157 0.7108423
ec18be7459574e9662d46b8593ace3f3 -0.53311837 1.5249861 -0.78667915 -0.42491755 -1.0870851 -1.244041 0.58901757 0.25119317 0.26664758 0.9998537 0.028522154 -0.5090465 -0.7315092 -0.28514308 0.7062916
e383740128008c1c52777dcc84096397 -0.5377218 1.5108188 -0.8013464 -0.40353224 -1.069264 -1.281898 0.61072093 0.2507117 0.30946597 1.0204725 0.03748597 -0.40699652 -0.73995143 -0.30157423 0.7088656
16f727b5963f2883880816b38ae803e2 -0.49169105 1.5403943 -0.7737475 -0.44441298 -1.1030252 -1.245583 0.58513117 0.27111882 0.32241145 1.0097542 0.07023096 -0.47632557 -0.71801126 -0.27073947 0.77282846
a358ae4c1d96d171ef944fb0c2a82ef7 -0.5163414 1.5041397 -0.8102918 -0.41325882 -1.0152633 -1.276808 0.60323673 0.27580377 0.27224687 1.016735 0.026504956 -0.4973168 -0.75784075 -0.3301012 0.72098696
325679051d0bd06fd91d212289b0185f -0.5416621 1.5493127 -0.7804024 -0.3907474 -1.1420794 -1.2612665 0.6168616 0.287615 0.30601114 1.0323032 0.070668995 -0.4340576 -0.7000979 -0.2581303 0.67690223
8cced49f64adcf69873bc4663efbe610 -0.51914364 1.5053442 -0.8013875 -0.41703132 -1.022264 -1.3149247 0.5325153 0.2858772 0.26927394 0.9778118 0.04338515 -0.48341128 -0.7548251 -0.33909526 0.7614179
232cd0a4215355b3256a64abea84d4df -0.53332233 1.4791117 -0.758883 -0.37921286 -1.020956 -1.2854075 0.61933875 0.22875722 0.26840448 1.0573196 0.027551113 -0.435866 -0.77910024 -0.2869033 0.77492326
6b223f124bfedb72465209ff5a9deaea -0.5146788 1.4672465 -0.8673708 -0.43955418 -1.0873934 -1.3214717 0.54324585 0.22881207 0.25978142 0.93920577 0.03125992 -0.4294324 -0.76179796 -0.27178755 0.72305346
2f863c39a040d71d3ee5fd22be3dac15 -0.5648617 1.4953443 -0.8284187 -0.4054227 -1.0750473 -1.3614521 0.60584706 0.22553071 0.24318492 0.9762848 0.029225666 -0.4364236 -0.7309176 -0.30761614 0.6887713
bdca9c4f4a79e4311d672df93fd3bdcb -0.56524456 1.4379565 -0.8282655 -0.44663972 -1.025655 -1.3074528 0.60094863 0.25486523 0.26420912 1.000331 0.039225917 -0.49302354 -0.7756033 -0.31993735 0.69709444
b57736419b7397467ed2f998112c1677 -0.5064004 1.4693633 -0.8166118 -0.41264594 -1.0417236 -1.3487064 0.540983 0.2774782 0.26458082 0.97394484 0.040389556 -0.36364928 -0.7511599 -0.29445958 0.74027514
bbd5acd2a9b2e09d8bb11f6f94547759 -0.52083254 1.5472918 -0.7822086 -0.38329747 -1.0961987 -1.3405161 0.5835173 0.2783479 0.28392506 0.95997673 0.079560325 -0.42991775 -0.7158842 -0.3058456 0.7165701
7391f4c462a14f88f3e7bcee069729c8 -0.5156776 1.5389848 -0.8208397 -0.42254356 -1.0492187 -1.2755291 0.5510002 0.2318209 0.29109982 1.0303987 0.05842443 -0.42607373 -0.7263226 -0.28743565 0.7256597
09c521f10907d569b2c42bedb430ea32 -0.49777833 1.5381124 -0.7538681 -0.41494003 -0.92677575 -1.3027638 0.5479491 0.20235632 0.26478764 1.0490098 0.088013865 -0.4693309 -0.73610437 -0.32268414 0.7164037
5f2210283840c7ab96a881bcaf31bdfa -0.4988741 1.559823 -0.8115646 -0.45056513 -1.04913 -1.3362298 0.5929252 0.21380563 0.24993286 1.0129446 0.025958873 -0.43290955 -0.7199171 -0.34328672 0.6712502
85a2eb8a8bfbea7a66ccb1df9a22e366 -0.49495453 1.4841723 -0.8100788 -0.44401872 -1.0498343 -1.2581266 0.58533233 0.19952144 0.2750891 1.0469152 0.0043003066 -0.48203832 -0.7736737 -0.27673545 0.71331227
0d5749abcefd27df66db4c41590be16c -0.52994084 1.5734748 -0.79017013 -0.39416888 -1.0234374 -1.2671796 0.5727069 0.23277079 0.28535843 1.057804 0.07714104 -0.4776751 -0.7511002 -0.32556173 0.71536976
f48e5f963cb51992e8da57a85ec93fe6 -0.37759584 0.67595404 0.94621706 0.9641109 -0.6101175 -0.80418766 -1.1323448 0.30395046 -0.64328367 0.46996236 -1.0504956 -0.6731718 -1.216958 -1.0930407 -0.6124403
5f810340f7e263bb3f389ac81a33924a -0.36557326 0.68867844 0.850339 0.97204185 -0.5708649 -0.8302961 -1.2189448 0.24718939 -0.686565 0.4802241 -1.1333892 -0.6307018 -1.209718 -1.0479497 -0.56477636
84921c6f86e9ad84c7ab2980f0234e52 -0.4295238 0.577255 0.8811226 1.0129294 -0.58245474 -0.8414743 -1.1743634 0.3566211 -0.64247096 0.43141484 -1.1124101 -0.68314314 -1.2065635 -1.0957319 -0.53904045
309a57f04858d94e0bc3873a5010961b -0.41451383 0.6030096 0.8930172 0.9457536 -0.59417117 -0.890461 -1.2353293 0.28813577 -0.663761 0.3861673 -1.0806303 -0.64247876 -1.2486366 -1.0563414 -0.5511355
24e95d38e5859b3de7b696a71b2e9337 -0.3846627 0.6256009 0.89293534 0.98612857 -0.66238815 -0.8292924 -1.1955823 0.38594934 -0.60032094 0.42208457 -1.1006855 -0.5495162 -1.1875885 -0.9969029 -0.5120539
99636abea5cc4fae02bb5303f2fa698c -0.3186001 0.7367946 0.88195467 0.9294186 -0.6105165 -0.77110755 -1.1701298 0.2719967 -0.67964953 0.47130907 -1.0846334 -0.6256643 -1.2123365 -1.0833459 -0.62362075
1613ce1136bc8978c20804e8551210e8 -0.35217127 0.7041563 0.91784054 0.95623416 -0.55261326 -0.82459366 -1.2117059 0.21223553 -0.696508 0.49148482 -1.0554373 -0.5240787 -1.2179334 -1.1082346 -0.56865627
5fb139a3fea7ba825f6c3939c6662154 -0.406888 0.65537804 0.86679345 1.0097612 -0.6278381 -0.85611534 -1.2093831 0.34601045 -0.617484 0.39344963 -1.0845186 -0.5952798 -1.2315782 -1.0799483 -0.5772425
0aca4ae643226528037631c641d88ef2 -0.4151718 0.697565 0.8872846 0.9311388 -0.65987784 -0.8541921 -1.2645198 0.35347414 -0.6470105 0.45460093 -1.1301703 -0.6180683 -1.2189491 -1.0746744 -0.5746337
9fe5848bbac3339f3cedf65d248369be -0.38492873 0.71175474 0.8788247 0.9593699 -0.5399029 -0.782516 -1.1762984 0.3131748 -0.66029614 0.5282345 -1.0568529 -0.65899456 -1.196613 -1.0531371 -0.5180511
748c759b8821d8bae9d07b55f7c5e46a -0.3973513 0.61848295 0.8314377 0.95494634 -0.5915086 -0.8578694 -1.180116 0.2883238 -0.63097423 0.41387805 -1.1225723 -0.64826876 -1.2217373 -1.072306 -0.54238033
588f5547e5794335d7d62f907ba69c44 -0.37855643 0.64746225 0.8880578 0.9669776 -0.5326162 -0.8044718 -1.1401292 0.25064218 -0.6416727 0.51369494 -1.1399117 -0.721908 -1.2545114 -1.0397295 -0.5647369
2c562d359309fbbe6c3c9c62aa97bb7b -0.37789562 0.60140556 0.87660635 0.9833464 -0.64837086 -0.8123624 -1.1790907 0.27374303 -0.63879025 0.43036875 -1.1554039 -0.66295505 -1.2577069 -1.0146334 -0.52560914
7fa9820f18d5eb02f78f26b82f2ef695 -0.39703375 0.63820165 0.929715 0.9614717 -0.6054797 -0.8227116 -1.1472595 0.2922666 -0.67210746 0.46471626 -1.0996921 -0.69601375 -1.2165501 -1.050059 -0.57247686
fcc4845bd219595b82f101c6ea1916e0 -0.35012636 0.69180787 0.9238093 0.99858403 -0.66573507 -0.78337926 -1.2157885 0.23471239 -0.70018864 0.4335821 -1.1058875 -0.6104922 -1.2205522 -1.0049967 -0.5590485
4f07ff7de01bcd46297e5dc48e649dc9 -0.3711711 0.6752174 0.8923715 0.962769 -0.60460204 -0.74840784 -1.1622374 0.24710798 -0.64468104 0.4809943 -1.1235789 -0.7086833 -1.25071 -1.0196389 -0.57226706
3d37c1889fe35a91fa7d6e74e9113793 -0.39588708 0.6282024 0.8918407 0.9829106 -0.6654159 -0.80695856 -1.1573108 0.23079625 -0.7422745 0.44611707 -1.1697451 -0.6088094 -1.2357644 -0.9998753 -0.59718037
e7c402d44d5ebc0707bab99110c10528 -0.39534223 0.599622 0.88667774 1.001982 -0.6466088 -0.8190232 -1.2139972 0.27298692 -0.69379467 0.44704294 -1.1100539 -0.5837799 -1.2507681 -0.99134386 -0.50943375
6cb34c7f888ddaa2dfbe257f9da22593 -0.439522 0.6327664 0.8500807 0.9636372 -0.6468607 -0.84430844 -1.1918268 0.3132729 -0.67911243 0.41361964 -1.1075662 -0.6121303 -1.2355121 -0.9973513 -0.5670924
57425565cdf8ad337fe6e84e4da9b4df -0.39380547 0.5681543 0.87609667 0.9251593 -0.55555505 -0.87086207 -1.1568383 0.25212112 -0.7050137 0.45018366 -1.1370194 -0.6802396 -1.2680322 -1.0077991 -0.55462414
6478c9f26d5b84fff5def8bf1d15154d -0.39172384 0.59223104 0.87913823 0.9304292 -0.5963648 -0.85330045 -1.143643 0.3436908 -0.60841453 0.41527447 -1.1874473 -0.7341425 -1.2531326 -1.0827229 -0.5276902
ae50ca468768453a1039b08879dc7f6a -0.43010995 0.59066343 0.871931 1.0016365 -0.65629405 -0.8044051 -1.1795446 0.33935964 -0.6734084 0.4365784 -1.1146276 -0.59508526 -1.2266065 -1.0372168 -0.53186744
f3fc97e2f01986a1b6c65a9df8949651 -0.3870293 0.62956446 0.89179003 0.93892294 -0.6133586 -0.784035 -1.145809 0.33147693 -0.6014781 0.4689985 -1.1535071 -0.7106327 -1.2310191 -1.0456643 -0.5570806
693288346b75542e5948c37ab8365b3e 0.937502 -0.21049376 1.7589028 -0.037728447 -1.115858 -1.9930774 -0.012764063 -0.20823954 -1.1711719 1.6759744 -0.68757695 -1.2964582 0.77405936 0.7918866 0.6640857
084445639e757fcc1863b504279e6bcf 0.9259565 -0.20062248 1.7218071 -0.18940225 -1.1237142 -2.044658 0.015872916 -0.16759424 -1.0738457 1.6260703 -0.798228 -1.3099508 0.7452251 0.7631889 0.59789944
544af044f886104af2f5fb49d5147118 0.98643446 -0.14803322 1.7969323 -0.23662928 -1.2204106 -2.104767 -0.1034471 -0.10439375 -0.9368319 1.562157 -0.7569241 -1.2526808 0.78015417 0.8361557 0.6948491
60dafc6939f84150912bdb33aebb1ba0 0.9291344 -0.12955245 1.7725122 -0.18408346 -1.14762 -2.0330758 -0.046883248 -0.09315241 -1.0521134 1.6065567 -0.74242336 -1.2808917 0.80293137 0.7932884 0.68160343
330d13a0847b8c1d69aed32e3081349a 0.92068166 -0.12276819 1.7860476 -0.15600702 -1.1532393 -1.9966269 -0.0062210695 -0.10912048 -1.0541927 1.5906045 -0.68326217 -1.359484 0.77294594 0.8356317 0.6557665
6f7b3c79127190a53514327adaec8558 0.9723628 -0.18451434 1.846305 -0.12980533 -1.2558322 -1.966154 -0.050441537 -0.06023134 -0.97376335 1.5831751 -0.7177706 -1.3076378 0.81386375 0.8617879 0.6439821
57611ad8633136cde6a959fd985a4073 0.94104946 -0.112509854 1.7134773 -0.13602388 -1.0845742 -2.0378475 0.023286035 -0.17544629 -1.1493765 1.6353377 -0.6819761 -1.3623195 0.8533694 0.7007812 0.5046948
cd8f50f4e586249405b5cd38847e86a8 0.9212019 -0.18181239 1.7685754 -0.18915804 -1.1643692 -1.9821004 -0.030740082 -0.116840884 -0.99777776 1.5392964 -0.7294321 -1.3785617 0.8151773 0.8169809 0.6951601
a63ae8721b0f25e892ba349b09e89646 0.9580907 -0.124034725 1.8243761 -0.15323766 -1.1657809 -2.0071263 -0.084714584 -0.036147982 -0.92220503 1.6341673 -0.71337384 -1.2976427 0.82554764 0.83669853 0.6685867
4312faae34c477af05b8082ab92c6834 0.98085505 -0.14320718 1.7918158 -0.1175049 -1.1952106 -1.9792985 -0.061864678 -0.218317 -1.1070476 1.5691023 -0.68928695 -1.2086155 0.73823076 0.8851007 0.6361014
57eafeb46be097f3ddfa86efc0090a8a 0.8918571 -0.23895094 1.720826 -0.1302196 -1.1200103 -2.18498 -0.029261086 -0.23852973 -1.0659286 1.562113 -0.70287853 -1.3208169 0.7474815 0.8637858 0.6460403
972ccc640b77af4b6c0c28c49b680c98 0.9736803 -0.17762205 1.7585808 -0.05365722 -1.1483876 -1.9913875 -0.026155202 -0.28454626 -1.1197319 1.6146696 -0.68133754 -1.2300563 0.7079841 0.8663801 0.67586184
dbc2fbbb1eac2c50cd548db24345460d 0.9557635 -0.23776165 1.7212883 -0.079320334 -1.1201818 -1.9898549 -0.034373403 -0.20639202 -1.1364863 1.6189889 -0.7720896 -1.2639599 0.6536085 0.8514166 0.70360243
18d5bc5d9ac29a7d2c27a314659b2cde 0.9242862 -0.26767167 1.6766406 -0.01228393 -1.1861444 -1.9919044 -0.048815913 -0.22660895 -1.1645964 1.58997 -0.6754211 -1.2385418 0.72873765 0.89872783 0.78752595
327cecad1445a226a03923452ecd6bd0 0.895051 -0.24840759 1.7711636 -0.17554533 -1.209397 -2.052811 0.009602614 -0.10724468 -1.0704505 1.5189941 -0.8318968 -1.2965866 0.67319953 0.8096971 0.7066042
686a22dc4a7c09556c1dd53a341e18d7 1.0051439 -0.17010069 1.7852204 -0.22497532 -1.2319239 -2.0566072 -0.02780466 -0.14531338 -1.0053946 1.5038253 -0.6890721 -1.3061209 0.7508851 0.88029885 0.7241861
59a4a5dcd88133477ec7045303f1641d 0.9592266 -0.16130635 1.8034527 -0.13606803 -1.2214147 -2.0748484 -0.09472124 -0.14806321 -1.0724611 1.5463324 -0.68403274 -1.2306226 0.72983164 0.8692583 0.6775257
7f28ff4abbdca4275ebc94b63da333f5 0.96380126 -0.16988745 1.8032001 -0.10742869 -1.2204713 -1.9941165 -0.00019061987 -0.19617854 -1.0499924 1.5697266 -0.72733206 -1.2441063 0.76236796 0.8586456 0.6432278
4d47ac9b20e1343ece137e023809c2f8 0.9565985 -0.15763661 1.7414597 -0.13394631 -1.1346713 -2.0767894 -0.03650806 -0.18350598 -1.0799018 1.5577046 -0.68356967 -1.1961108 0.72831756 0.8370236 0.67965543
e1fd8b3e741d881ac293be5d62679c4f 0.9165415 -0.22075512 1.7657951 -0.016660143 -1.1241108 -2.021057 -0.07260502 -0.23686191 -1.2247602 1.6338071 -0.62125635 -1.1628561 0.7537491 0.8458298 0.6415157
cf952f75a0c77ddc6f555efb7a056b36 0.9634145 -0.21790949 1.7530315 -0.044736378 -1.2075595 -1.9682269 -0.03574554 -0.1531318 -1.0964963 1.5743421 -0.72926974 -1.1744546 0.7185722 0.88486665 0.7751596
2ac38f3b368ef57e1f4271d359008774 0.98788416 -0.22880082 1.6969382 -0.028900089 -1.1517961 -2.0234916 -0.010651836 -0.18099754 -1.0992612 1.5525366 -0.76866513 -1.2798202 0.7421702 0.8322145 0.69391817
7fe44b9ce7bab7de4c058b220b958578 0.9381366 -0.16016246 1.7557473 0.03794182 -1.1492255 -1.914566 0.0037760916 -0.17699826 -1.067185 1.658792 -0.69696486 -1.2065812 0.7821803 0.83380216 0.7447346
68398751daa300a79e1eb6c0592066cf 2.446371 0.55159295 0.54594034 0.5745981 -1.4244729 -1.3759094 1.6841637 -0.59645534 0.063131824 -0.58415866 -0.101969525 -0.3464288 -1.0653473 -1.6864129 0.49659994
d0ae9ceeaa4696245d9da81339a8ddf4 2.39665 0.43912983 0.5525301 0.7049753 -1.4642514 -1.3911185 1.7009085 -0.63862383 0.11746211 -0.582733 -0.124024086 -0.22087921 -1.1231593 -1.6421498 0.50648415
02010d01dfbcc23e6793df7d781b4205 2.407935 0.46856844 0.47347906 0.6265084 -1.490701 -1.3616191 1.701175 -0.71709436 0.061097704 -0.62284845 -0.21058096 -0.31082934 -1.1247153 -1.6617854 0.56526214
b0f4dc72af9e2f412a465116ea8a59d5 2.4203413 0.5503974 0.6013613 0.55402374 -1.5316442 -1.369706 1.6898597 -0.59305567 0.23652086 -0.66650987 -0.09413989 -0.323626 -1.0600731 -1.5773183 0.47514075
f0b37b7a4e0e24d6432ed1e8d0160c50 2.418201 0.42268172 0.59694684 0.4964426 -1.500443 -1.4871914 1.7234092 -0.45771542 0.21750444 -0.7058125 -0.05998541 -0.36241433 -1.0895051 -1.6290627 0.4982979
acefc825072eddef3b0c6cb1163b58bb 2.4547384 0.48982912 0.59605366 0.5238324 -1.3967404 -1.4082938 1.6758678 -0.7247356 0.17995384 -0.60386235 -0.14752823 -0.3283888 -1.1085447 -1.6122776 0.5250119
1546d657e9785a934fd4184ebb998f4e 2.4197307 0.51579535 0.4252816 0.59278 -1.3058494 -1.4050575 1.7633088 -0.71389747 -0.030024981 -0.40547743 -0.18709596 -0.2585231 -1.0947441 -1.7891542 0.33146504
ff8d6bf5b336f9f41c3a5a63ac3bcdf3 2.448762 0.5333836 0.44010866 0.5677952 -1.3217667 -1.4458869 1.6358374 -0.71108305 0.023276512 -0.4855381 -0.08577194 -0.15384468 -1.0516742 -1.7124869 0.3826299
4b85e770622e19ec577e75b468f02985 2.4687092 0.6182468 0.4712916 0.5832682 -1.3292584 -1.4542105 1.7368523 -0.7708291 -0.0073875915 -0.42312908 -0.012819592 -0.18071775 -1.0836155 -1.7260509 0.30775875
66d8a83ff9c06b762f1fa9a6a01d44b9 2.448913 0.5703079 0.5379107 0.53569704 -1.3844451 -1.3909996 1.7294022 -0.64028454 0.20298773 -0.53862596 -0.08062552 -0.37906504 -1.0430053 -1.7150592 0.4365886
5008d044ccd76dbb51dd411419cd1d5d 2.4174442 0.4263882 0.48283264 0.59784025 -1.3118788 -1.5259365 1.7558504 -0.68430096 0.02582348 -0.53941745 -0.0965801 -0.41059807 -1.070648 -1.7167426 0.5141062
30f9ca39dc014503e16e45d8ab7d19b7 2.43273 0.5699656 0.5459919 0.608562 -1.3051018 -1.3764694 1.7638309 -0.7177991 0.069977514 -0.45797276 -0.11876491 -0.3454022 -1.1066691 -1.714775 0.4208226
69d67671e4f246312019578bad749013 2.3392322 0.41559422 0.45022485 0.5149294 -1.3907094 -1.5510836 1.71753 -0.55445266 0.15273611 -0.66449493 -0.19811188 -0.35674274 -1.1322936 -1.7300591 0.46380046
7e5090651e462c662b8bfad0f5527381 2.3501124 0.41770715 0.4127325 0.5594125 -1.3338699 -1.5744448 1.6527209 -0.60475177 0.0123418765 -0.6660458 -0.035661545 -0.3002885 -1.1079971 -1.7221864 0.4643773
7cf3152342faaad0d82b2c2eebfd7a1b 2.440711 0.50113297 0.5087374 0.47813678 -1.2526435 -1.6109986 1.6725705 -0.64201987 0.14191994 -0.5590102 -0.041234132 -0.23122263 -1.1777171 -1.7897011 0.41338116
939cc826b6175945515798070bb86d98 2.367254 0.31182882 0.5018772 0.52398914 -1.4086142 -1.5141447 1.7896307 -0.6965716 0.03698562 -0.5815393 -0.2870914 -0.48450735 -1.172978 -1.6282035 0.49581796
e08a18612ec0404137b439a8357449da 2.2952807 0.4513748 0.49415532 0.5017424 -1.4377593 -1.5311846 1.8537147 -0.63813883 0.06333819 -0.60197484 -0.23927914 -0.34262565 -1.1037953 -1.7714982 0.35887212
1bb55685ef39ac1911b08acac490d3c0 2.3944776 0.3720586 0.46777853 0.6197646 -1.4005378 -1.5478908 1.7371587 -0.5397878 0.10084247 -0.6632884 -0.114864215 -0.3393526 -1.0271727 -1.643047 0.5420572
81ff4c42725cb1083e9e02e5ed4d2f56 -0.32133663 0.4512245 0.88283175 -0.37343362 -2.0544844 0.2765991 -0.27533975 0.4760918 -1.7382774 -0.75151515 2.165551 -1.3173536 -1.8250234 -0.76058304 1.3524055
bfa367c5921914f3ae311e147f351fda 2.2554834 0.32308182 0.4046581 0.557863 -1.3733662 -1.524302 1.734297 -0.600622 0.056244913 -0.6155321 -0.24476911 -0.34885734 -1.1360621 -1.7202632 0.46892312
81e513eb9634b3b755cee3a5ecb522df 2.2680352 0.39957067 0.48436493 0.66395134 -1.3935772 -1.4999074 1.767841 -0.572343 0.06932043 -0.58973753 -0.07971734 -0.24725941 -1.0588133 -1.6798352 0.42109057
7357ece25145583ec6b7be5b3e91fc96 2.3527684 0.5032918 0.50156176 0.5998007 -1.4205899 -1.4951148 1.7468191 -0.48712847 0.19229446 -0.569136 -0.10671749 -0.336038 -1.0840603 -1.7285668 0.45175564
74212db022bab3b310e2e2f0d41c438c 2.338274 0.31236535 0.50701755 0.58145064 -1.4308667 -1.4826452 1.7304076 -0.53501123 0.14240682 -0.625874 -0.13694368 -0.3274958 -1.1400452 -1.6569496 0.48973456
b7d53e447e2df3c044927fccbb1e5c3f 2.4225626 0.53287137 0.5389635 0.5701497 -1.4753006 -1.3732828 1.6858811 -0.67386025 0.09915485 -0.6481569 -0.070715785 -0.28408173 -1.0378209 -1.6584144 0.4215921
67e5eb87b4777661516917ce25acf999 -0.28386146 0.49974066 0.8326559 -0.39914086 -2.2533793 0.4763402 -0.24993126 0.3743137 -1.7204179 -0.74287665 2.0686357 -1.3362905 -1.8049773 -0.68153185 1.3231896
e29be0c9aa247a0731df0b364dc95033 -0.22299375 0.39649865 0.8261188 -0.41973636 -2.315847 0.50684315 -0.25854486 0.41894993 -1.6833646 -0.7679601 1.9776695 -1.3998425 -1.9014939 -0.65032816 1.3520699
26f7269f01d354597fcad4a4cc3b37e6 0.3356219 0.17618135 1.4210781 -0.58930236 -0.9696353 0.22690475 0.37638807 0.760767 -1.2451854 0.5121562 1.671627 -0.68689036 -1.9833316 -1.8223101 1.1610794
cc17aec4bffddda88ce9e0bad6da3edd -0.16990957 -0.24297677 1.8785198 0.4096543 -1.8321246 -1.0702227 1.1522549 0.14525707 1.3702129 1.3410747 0.78736365 0.41376814 -2.6084657 0.62492424 -1.5537262
5477244cfdc803b65e3cb38386c9866f -0.1572161 -0.19236177 1.9773877 0.1849757 -1.5747247 -1.3647391 1.1988298 0.056355044 1.281591 1.4065145 1.1079992 0.34426746 -2.4457712 0.54648185 -1.7304147
d9f2bec7f8c202592e912a2bf4a33953 -0.17811331 -0.18720089 1.8545178 0.15619718 -1.4245669 -1.2385235 1.1525792 -0.107882105 1.2909762 1.4546094 0.87810093 0.15986365 -2.6048691 0.45132765 -1.7680879
580a50bb1f46bd07610c96278d057efa -0.3039532 -0.2418536 1.8353977 0.36448565 -1.5698571 -1.2640932 1.1065158 0.019340875 1.2897768 1.3188698 0.9997484 0.41882846 -2.5482988 0.47429276 -1.6367725
f8c7e02811f853dccadb2777c0734093 -0.30177444 -0.3177703 1.8743827 0.0228049 -1.5512608 -1.4832664 1.179836 0.2237922 1.3845787 1.1742768 0.86397874 0.20024486 -2.6594398 0.35901585 -1.7017035
8bc5cbb9bf25bec4d289f104f5fb689f -0.22464812 -0.2554555 1.8513303 0.026284479 -1.6883578 -1.463754 1.172267 0.14960615 1.3955102 1.0515963 0.8593303 0.2139932 -2.561971 0.4547046 -1.7302998
bb73c748574c10587d10ca8e914208b4 -0.40718114 -0.3402648 1.7936708 0.059749562 -1.4105896 -1.59572 1.1476586 0.16982353 1.2581904 1.2839761 0.8955835 0.35275173 -2.6249292 0.20012903 -1.7774053
2baf47f6dc8793424ddba5a22b1f3149 -0.3490486 -0.38917312 1.8482846 0.12705445 -1.4716132 -1.5059078 1.266903 0.16656312 1.2455076 1.2334425 0.83589846 0.24367538 -2.6407614 0.29135087 -1.7134366
868458b3d22d5c445a5556563b31b761 -0.31912675 -0.36318997 1.9643781 0.2852862 -1.450369 -1.336165 1.1146083 -0.018089242 1.1404672 1.3034317 1.0060084 0.40250397 -2.6084414 0.44023094 -1.5533767
9f3c443616d5e2c6879f7deb7ff65817 -0.38263103 -0.30678102 1.8621356 0.21245164 -1.4571214 -1.5523441 0.8279573 0.15202373 1.2946732 1.1961696 1.2317148 0.6459492 -2.5700295 0.43437722 -1.6097242
18b603fea8cb383828da5573122b6af3 -0.33587176 -0.3839326 1.8139169 0.26465547 -1.3807935 -1.3171372 1.227421 -0.12910132 1.0649428 1.4225793 0.84377366 0.1908579 -2.6515896 0.33926147 -1.7262746
c0602895dc0c02f27211b03cda959f6f -0.4048658 -0.43451473 1.7965252 0.3352603 -1.4857466 -1.5165591 1.2059677 0.09443502 1.1650077 1.2076908 0.84899366 0.5104431 -2.6822348 0.2518186 -1.6269959
f590261a277d2e05ae49f40c5d996faa -0.41392136 -0.6002163 1.8651088 0.33811417 -1.4342242 -1.5215098 1.1618483 0.14457355 1.2775202 1.2426718 0.98310626 0.3183517 -2.6409943 0.4609515 -1.4567919
2b952f4345f15b244e07a71147860965 -0.30138248 -0.41768986 1.8654312 0.1725612 -1.3429854 -1.478678 1.0992793 0.0795844 1.4441308 1.2290691 1.0054992 0.25510776 -2.6421351 0.36575404 -1.6270338
7a7558dbfe464bcb52c5df53da015ec8 0.7033906 -0.43806013 1.1074189 -2.1635957 -1.1913204 0.41981292 -0.44289982 0.35769746 -0.90690756 1.6885248 0.20034736 0.2186257 -2.3906007 -1.3820821 1.2952884
d2d0cd4d9574b991779a4eededecb3b2 0.33105728 0.18540427 1.4360868 -0.48958382 -0.8750562 0.055050436 0.36009166 0.7957701 -1.3183709 0.49512702 1.8524417 -0.7320453 -2.0279121 -1.8474807 1.2219468
1873acfa15e491966fc95dddfd9109ce -0.2506129 -0.2837763 1.8403578 0.1713269 -1.3940302 -1.3553991 1.239602 -0.029769737 1.3202196 1.4548894 0.8565619 0.23510648 -2.5831823 0.333884 -1.7485977
8ffa21e0668557c9d95b692e558498f7 -0.25117537 -0.26653066 1.8570349 0.32876247 -1.5620133 -1.0818354 1.1631304 0.057729594 1.4543911 1.4672922 0.9483862 0.26873484 -2.6205473 0.49365264 -1.5723475
7dbfe9269263ddc136e0ba03b1d721be -0.28367636 -0.24192767 1.8181344 0.34193462 -1.7034576 -1.12262 1.1704232 0.08723181 1.1660197 1.3453239 0.9769126 0.49922803 -2.5492046 0.46697852 -1.6364413
d1a117722a8f294800af2ccede2adf00 -0.3384958 -0.38780892 1.9409083 0.33445892 -1.5860875 -1.2082916 1.1623385 0.110596344 1.3168602 1.2730885 0.91382813 0.31697336 -2.6068218 0.4958243 -1.4030576
5c5678653ff0258b4630f9dfe6b264d7 -0.26577002 -0.14869294 1.8273126 0.08664918 -1.4473063 -1.3984255 0.9340331 0.01040613 1.357523 1.177949 0.91360044 0.5198043 -2.6099594 0.28006086 -1.6612415
1a738ae8ca0bb687daaf4943a375b84b -0.26841536 -0.2872669 1.7874019 0.12417893 -1.4705204 -1.5184199 1.0638058 0.052642934 1.2015527 1.3236073 1.1035028 0.47619623 -2.512698 0.3904326 -1.724108
51c797a3f924950be5aa8d2f42b5732f -0.3141772 -0.35601738 1.7771229 0.18643418 -1.4803228 -1.4861842 1.0714638 -0.07378557 1.0366887 1.3402869 0.7978467 0.3910126 -2.5796163 0.51381856 -1.7559526
a7cdb2b70de2259f8dc0d8d538851f0f 0.27301767 0.22399278 1.5859975 -0.4510665 -0.8588043 -0.20003562 0.46138492 0.8639477 -1.4317598 0.4168679 2.0783098 -0.80714995 -2.052845 -1.89527 1.2993495
5329ae64301d72d166d446b44679bf7e -0.25272387 -0.27288482 1.8166994 0.22392175 -1.5228112 -1.4738616 1.0351505 0.05517503 1.1887295 1.1684463 0.948922 0.4252993 -2.5454493 0.5361132 -1.5887212
219e84e30259336aef7ab3ea29ec43b1 -0.18103245 -0.26980647 1.8922658 0.17703341 -1.5237443 -1.3333497 1.165333 -0.034350466 1.2973192 1.2839489 0.816303 0.2137437 -2.6516635 0.42492864 -1.6710674
020fa7baeb8c996e4aa011d9dfcfa0e1 0.32471752 0.25229752 1.4610339 -0.45694494 -0.90109503 0.23825677 0.43522927 0.6737797 -1.3174012 0.6669682 1.704266 -0.70725167 -1.9774145 -1.8511467 1.2048674
3b18bf1a1269eb74d35d5e61ac2d82e4 0.41295552 0.3354716 1.62235 -0.43756106 -0.9613671 -0.11493059 0.40774882 0.95525116 -1.3890656 0.34940922 2.0602243 -0.7596778 -1.9439557 -1.7849345 1.3804177
a866e110fa612635b1c7bea90f888765 0.3336959 0.21671827 1.610683 -0.42233163 -1.0819826 -0.23628317 0.59248084 1.0467318 -1.4136363 0.3314277 2.0721972 -0.6160142 -1.9295969 -1.8921702 1.1716805
96ede27e52ddf5e4b44e5382fdca6585 0.7029989 -0.3258754 1.2309483 -2.0494695 -1.2135984 0.42414272 -0.29886618 0.698231 -0.60813826 1.5043471 0.5383072 0.1831862 -2.253487 -1.5013527 1.1956115
076ed9f8454c956a711211ff9df0d75e 0.30710375 0.21929932 1.492398 -0.5032088 -1.0034984 0.12586513 0.37650198 0.75066596 -1.320675 0.44695234 1.8568937 -0.5859997 -1.989694 -1.8084561 1.1893882
d29f73e174efdb597a07a46aa45fd96e 0.93567884 -0.31047767 1.100557 -2.3904479 -1.7020023 0.56081706 -0.5719607 0.30526796 -0.91342926 1.6343524 0.10597676 0.5000202 -2.471868 -1.2460063 1.1746329
f15ea8b90b57b5b653e8ce34eee3ed76 0.7762684 -0.41266522 1.0306077 -2.135808 -1.481053 0.56548595 -0.5436975 0.003145801 -1.1495079 1.634253 0.032378368 0.43262073 -2.5120115 -1.1266683 1.133592
36549edbf9e5409b50a35a785f6cdcb1 0.69098413 -0.55514985 1.1105217 -2.0216198 -1.4749422 0.55775326 -0.35360458 0.08930061 -1.1912551 1.704152 0.072975636 0.3853877 -2.4831839 -1.1975935 1.1673515
2cf4d6dd93b04ec097e022217efc65d8 0.7157489 -0.6597181 0.9245466 -2.2964334 -1.4386845 0.26698488 -0.52302366 0.11836272 -1.2138381 1.5509938 -0.05768541 0.44525832 -2.550586 -1.2318763 1.0088569
ccf6fa8b4a88bd58db949427ff128acb 0.46009076 -0.44613206 1.5969344 -0.9982855 -0.76217955 0.60685015 0.4706205 0.62118495 -0.96213675 1.588492 1.0227834 -0.68119377 -2.3273773 -1.7722377 1.1837121
11ae08dc30a1a71a392ef457d20e475f 0.4987357 -0.45988026 1.3147974 -2.0008893 -1.0377454 0.36708587 -0.37007684 0.6649926 -0.70292455 1.4855788 0.5619574 -0.064135596 -2.3609507 -1.6236007 1.2871187
3bd845993e2cab42a890c144d39e7ee0 0.17001823 0.2912455 1.0927101 -0.034261823 -1.5081179 -0.22782393 0.31343368 0.75460315 -1.6733426 -0.37935653 2.2633424 -0.72632414 -2.2690272 -1.5671351 1.3629355
eb8655f5b2557b2e95ec28e24552ec45 0.4321433 -0.38304272 1.5955654 -0.97609836 -0.63866895 0.656253 0.3304857 0.6433752 -0.79267585 1.5620553 1.1146193 -0.7782491 -2.320845 -1.8242571 1.2752448
a333fb6c7e246c89d3d70f1fc0ac7b13 0.37048638 -0.42601478 1.6148592 -1.0038344 -0.72739965 0.5913137 0.42387825 0.6179405 -0.9357429 1.5202173 1.1347369 -0.8539118 -2.456497 -1.8420823 1.276079
384eb8898aec1d8a3c30a75f30302829 0.54583925 -0.36080346 1.6384774 -1.036956 -0.8052446 0.726225 0.3365888 0.7169075 -0.78092414 1.5088897 1.0847515 -0.79741156 -2.373327 -1.7616299 1.3059874
37c8530b0de31a864be0371dde7a3aa1 1.0692687 -0.50837964 0.81468004 -2.559236 -1.9639947 0.31856388 -0.8247577 0.06389887 -0.9162274 1.1311711 -0.32039192 0.6636552 -2.6859426 -0.970612 1.0391159
81b8b90a03030921c576da14e50b194e -0.18932642 -0.24137148 1.7950345 0.5309141 -1.6979926 -1.2630538 1.1919132 -0.19746411 1.1077781 0.8944498 0.9843009 0.36558375 -3.0216804 0.5569251 -1.4606414
246960b9c29f4b294421726b01c5f373 0.7474395 -0.53788155 1.0727824 -2.0982597 -1.3214805 0.48274013 -0.45509 0.29874486 -0.8760806 1.5311223 0.20590405 0.19230762 -2.416808 -1.2429967 1.2692368
c09938e7ad4418775e8501bad3902f58 1.0317369 -0.50777745 0.8635229 -2.492173 -1.7795298 0.21346225 -0.8267175 0.031024965 -1.08636 1.2797472 -0.058391467 0.81572145 -2.637341 -1.0289917 0.9805834
c5587bc222930ca37d6fdd8050e23a96 0.84651667 -0.53251487 1.1248385 -2.168297 -1.4890233 0.5642914 -0.50809795 0.24449216 -0.8323887 1.5601858 0.17104475 0.2127047 -2.5174234 -1.0965798 1.3589478
b2e3199924960daf483ae48efcf76d07 1.0161213 -0.30905187 1.0651642 -2.2906747 -1.5260649 0.40030792 -0.7416566 0.18261404 -1.008062 1.5247831 0.16207995 0.5879942 -2.4721494 -1.0368781 1.2583629
006ac083d785216fe1d09f57aa05a00a 0.316159 0.48416182 1.1987449 -0.06638833 -1.4085106 -0.3708967 0.1496049 0.842648 -1.6256 -0.3943431 2.4369788 -0.5899339 -2.194626 -1.5082631 1.4096109
b0a5979289d721fb4ae92ae42b0707b4 0.5563556 -0.18749961 1.7748013 -1.019401 -0.57625055 0.5194521 0.3203341 0.59196526 -0.83191025 1.5087157 1.2948216 -0.7760191 -2.3479435 -1.8421757 1.3999052
2f0e3776a4a47577855566278b701c9a 2.4305162 0.20765316 0.3935523 0.87381005 -1.2468635 -1.672653 1.6216077 -0.8780375 0.009821274 -0.69428337 0.10702528 -0.17503166 -1.5632764 -1.5804192 0.5802098
16e569d04823f863fc07f654b2d33214 0.045919295 0.8978734 0.977954 1.2066556 -0.740724 -0.6184704 -1.4614086 0.30156958 -0.21857743 0.35831705 -0.9029235 -0.61731535 -1.4880307 -0.47097242 -0.13977002
156e7853c9393d85c9558d387352cfa9 0.7456526 -0.10937517 1.4532229 -1.913953 -0.7314443 0.3659284 -0.44959527 0.53996867 -0.7087539 1.7237663 0.94078755 0.06737247 -2.2373302 -1.6129984 1.2369826
e6405f6001a95f1800814b75d82ea608 0.62094796 -0.17697823 1.550197 -1.5689372 -0.7501875 0.55775714 -0.080938056 0.71522737 -0.6774623 1.7522854 0.9894936 -0.36883235 -2.2565804 -1.7452658 1.2094498
37b6073cba745a8cf7493cfb975c87cf -0.5438351 0.54928267 0.18338044 -1.6751225 -1.8909918 0.15801235 -0.39071068 -1.632678 -1.8800595 -0.8591856 2.4061348 -2.6908915 -2.1855397 -0.5447924 -0.0650381
0427c8ab1d15c500e7aa3772d6986afc -0.25217515 0.69205976 0.22400431 -2.076357 -2.1194732 0.23158146 -0.5404123 -1.108564 -1.1973013 -1.1919932 2.0320165 -2.989217 -2.0952525 -0.6060195 0.09898052
40671d862c7075838e5be35a5515cc98 -0.50941443 0.3737329 0.14763975 -1.8068985 -1.9576705 0.047220096 -0.54297805 -1.2482873 -1.5393656 -1.1061077 2.2790275 -2.8531275 -2.176827 -0.49487826 0.17684965
fd0170100d4c12a1eaa6cf9b38bb6ea5 1.3346566 -0.28256315 0.8447009 -2.2428775 -1.9417822 0.3181931 -1.0597793 -0.35942644 -1.4521478 1.3701979 -0.1672836 1.3102443 -2.7128336 -0.7685161 1.0595117
4ee8d5e36e557d9f19df6a8f4da2b514 -0.5303275 0.41601953 0.19487199 -1.7445483 -2.1344936 0.14926939 -0.60415655 -1.304652 -1.6575522 -1.1667341 2.1785772 -2.7244823 -2.206703 -0.35951078 0.27559206
1fde443aeb376b5dd1ae791b3b8d14f6 0.29887682 0.3468636 1.2313074 0.06855898 -1.2481097 -0.38132715 0.10361029 0.72394323 -1.599846 -0.4068668 2.354769 -0.681228 -2.2647803 -1.4195404 1.4186964
ef0b127b21c80115ffadb73a1ba9651d 0.8195906 -0.13181797 1.472386 -2.0131633 -0.79245645 0.44972625 -0.4194265 0.62373793 -0.48530132 1.8244199 0.8479068 0.08687425 -2.259529 -1.6499015 1.1322303
b1a2af14bec45cd33e5c17c7a0554c56 -0.4366263 0.7113546 0.27219555 -1.9848019 -1.9207017 -0.24672645 -0.70736367 -1.4070119 -1.6371962 -1.2015096 2.6045918 -2.5736701 -2.0149834 -0.54622525 -0.07400753
ad5f03c5939e809e4caf73d36f0192f8 -0.2688288 0.7510938 0.35068956 -1.9342003 -1.9131963 -0.064285725 -0.6029176 -1.2715322 -1.5120623 -1.0737456 2.5182676 -2.5399957 -1.9475743 -0.59627277 0.045098472
48b5b8567d08ed22ca5624c7e1a01eb1 -0.39970532 0.45525885 0.34189174 -1.8539873 -2.0532568 0.07163835 -0.68321955 -1.244039 -1.4295264 -1.2327695 2.2831488 -2.6873014 -2.0803533 -0.385266 0.16857733
060100e752eb6371361c67baf6c5020c -0.3874537 0.63772595 0.39468676 -1.9688731 -2.1018798 0.020129222 -0.63377273 -1.2465028 -1.2630855 -1.30415 2.3538988 -2.7549515 -2.143682 -0.503768 0.03891388
14862224468d9bb7e10ba525c0029cf5 1.2168988 -0.46321934 0.9773485 -2.2984846 -1.932456 0.15893653 -0.91694516 -0.1154387 -1.1997573 1.0984799 -0.19658796 0.995151 -2.7062848 -0.72837394 1.1759236
fd8815988ffbea3333745ba1b7281efa -0.46683094 0.53671956 0.24258053 -1.9281098 -2.1047459 0.0678663 -0.4974968 -1.1819248 -1.3492328 -1.1472752 2.2895682 -2.789237 -2.1567593 -0.46483624 0.1095412
77e39607a53581015482f546b6dc76b0 -0.6023375 0.619379 0.17011003 -2.0069993 -2.2213182 0.10892878 -0.28034788 -1.3058466 -1.721856 -1.1553158 2.11029 -2.8127766 -2.0420423 -0.6565633 -0.21435514
c58469f73792f81ff6d5861bd6f02b58 0.5103709 -0.22344804 1.5118717 -1.6873866 -0.8442448 0.4969378 0.096538745 0.80071956 -0.70806944 1.6558666 0.85550433 -0.36476913 -2.214916 -1.8353022 1.0824523
1f39179c40e220347139f0fa93ddaa82 0.6809898 -0.094674155 1.3837143 -1.881849 -0.9786258 0.5231631 -0.24508427 0.7449267 -0.64897686 1.7552859 0.71014535 0.058420036 -2.0644462 -1.7112201 1.0015142
ee630d071a36140b640a81ad2d03be69 -0.60949355 0.62751055 0.2606686 -1.8374094 -2.330744 0.1674303 -0.28735572 -1.249325 -1.7595326 -1.115513 2.3293445 -2.5888906 -1.9063796 -0.5783864 -0.32134333
9dbf9e425965e83baa1762525e29cfcd -0.65891814 0.49218878 0.20199461 -1.8121936 -2.2132738 0.15721068 -0.322115 -1.391306 -1.687945 -1.1143901 2.1122494 -2.7751613 -2.1218784 -0.5477752 -0.012985603
37b079fa7eb894cdde629a2627036dfa -0.65994793 -0.19085598 0.79520833 -0.034982722 -0.9457966 -0.39196008 -0.15438662 -1.1009793 0.45936757 0.13456027 -0.093403295 -0.11180034 0.3137235 -0.80954945 0.70137763
b2caf6a4a41b3746ba485c3c4256913d -0.62102294 0.6709494 0.15014108 -2.0105052 -2.317266 0.19896409 -0.2855705 -1.1960508 -1.7418146 -1.0771022 2.1377845 -2.7181084 -1.9847721 -0.70622575 -0.17702419
91ffa3fc9b3b0ae1ed597af1a4d4d68d 0.9298709 -0.44508296 0.86479765 -2.3741512 -1.7099404 0.21741459 -0.70365024 0.10072778 -1.072088 1.401168 -0.13464218 1.0424731 -2.5674884 -1.2169045 0.94597375
cc944646df2d9147291c81dbcadf5e64 -0.71038514 0.4857885 0.20415647 -1.7770427 -2.0642128 0.13077134 -0.24510114 -1.2853221 -1.7443907 -1.0584239 2.1115756 -2.7157018 -2.053978 -0.6960228 -0.09178369
80d6194e445881ac4f2bf1ad09ab2328 -0.70609325 0.47013482 0.15224919 -1.7295152 -2.1039507 0.20271705 -0.23859976 -1.3302768 -1.814201 -0.9898794 2.1147902 -2.6817088 -2.007062 -0.65189016 -0.14450246
71d4bac8cdb79a54d6ffa59503c8d755 0.99473614 -0.48078647 0.81573325 -2.289035 -1.896751 0.2466022 -0.8354563 0.030249521 -1.2501366 1.2015452 -0.2679752 1.0844989 -2.5861268 -1.0077703 0.96591085
bbb6f79d5fdd6ab3d379b98d6f17a0f6 -0.73580563 0.58370626 0.21838196 -1.8855916 -2.1543744 0.15376526 -0.25998056 -1.3331858 -1.7896484 -1.0101899 2.1378882 -2.7373579 -2.0312228 -0.7405482 -0.13215663
0ae0b8a18e2bd85fc54ea17edb480e88 -0.37380844 1.2968553 -0.8528877 0.087154806 -1.0256782 -1.1222837 0.5732888 -0.18656985 0.1583262 0.91035295 0.24358623 -0.4126829 -1.2014564 0.18543789 1.0429586
1b1b6da396f6c8024b44bfc227f54bcb -0.643958 0.5273118 0.2728777 -1.7770448 -2.1101058 0.18002708 -0.34375736 -1.2185808 -1.7302244 -0.95929074 2.2721488 -2.505795 -2.0313187 -0.6592249 -0.009045626
30a5389cf2985a26b6585f0bd623669a 0.8858809 -0.087953515 1.6528758 -0.2830511 -1.3554046 -2.533747 -0.18087958 0.15054847 -1.2467734 1.3114895 -0.61906564 -0.71516377 1.1591221 0.5785945 0.6371357
a2171e9702c3e04e4b3f982c70eaba59 -0.6448654 0.53752875 0.14742807 -1.8346887 -2.2565405 0.2677153 -0.33063787 -1.3097829 -1.6761637 -1.0907286 2.0248492 -2.6185224 -2.0549836 -0.67119336 -0.16510192
549e616e8c6859f370c003cf3d3995dd -0.6778437 0.52542305 0.14113174 -1.8706619 -2.4140048 0.22143981 -0.3628053 -1.1068447 -1.5525467 -1.1928132 2.0481527 -2.667792 -2.006999 -0.6257625 -0.097000234
dfc1e92888cbb70e25ab40f54e325f6a 0.43195966 0.12688756 1.9124011 -0.62330455 -0.7408035 0.14501965 0.5583174 0.9062978 -0.9683416 0.8379256 1.7559448 -1.0328025 -2.1537526 -1.9467721 1.4011905
f69e1c97a5639548110d52d4fbd73629 0.8123317 -0.6366894 -0.594613 0.19997942 -0.7523907 -0.4321328 -0.5991141 0.15596819 0.04826209 0.70773757 0.51447093 -0.6704593 -0.14371733 -0.53748035 -0.48592234
47328bed9c46daa683c9b6af74ab20f2 -0.3554883 0.9754428 0.33080098 -1.8898675 -2.3308556 0.3925066 -0.3651497 -1.1985121 -1.6331995 -0.95805126 2.218239 -2.718683 -1.765711 -0.61076385 -0.16147695
07229e9d1bf1d9684a72153e4e55744e 1.3894635 -0.25829536 0.75953996 -2.3876977 -2.3741193 0.4384307 -0.69503915 -0.117956154 -1.3420825 1.1206855 -0.40045664 1.0619951 -2.5096207 -0.6522627 0.85195756
c0079d84c8db4f1765169503a70ef85a 0.10346901 0.9580828 1.147296 -0.011246231 -1.9181365 -0.22376539 0.26766247 0.81628466 -1.7370718 -0.75506324 2.3270667 -0.56057733 -1.8801358 -1.6018249 1.2578897
06977bfdabef8d10de870def069f1cb9 0.52011687 0.26506215 1.9146732 -0.43758696 -0.9523667 0.35841614 0.55327696 0.8595421 -0.9848514 0.76285136 1.9052637 -1.1393262 -1.979562 -1.518427 1.4573094
32f09a451b6ea69d4f1adbf1210ba0a8 -0.39555582 0.8294797 0.2885043 -1.7718164 -2.1757526 0.34069455 -0.44510746 -1.3144674 -1.5555098 -0.924722 2.2988646 -2.6641626 -1.7997447 -0.4227407 -0.046040643
40eed0a6a3c19c774cda99095ca1cd22 0.21211587 1.0644947 1.1550806 -0.10580018 -2.034674 -0.19248109 0.22348796 0.9086819 -1.6013786 -0.73321867 2.4679427 -0.46821803 -1.8775021 -1.6050179 1.2628232
74bd4e38263b443a4889528fb6815e4a 0.5604356 0.3509078 1.919372 -0.31309667 -0.81731755 0.23837025 0.6008549 0.78128386 -1.2113148 0.9255507 2.0203264 -0.98544997 -2.0323398 -1.6794983 1.3642132
05794d458b3a87bcbeeb31dc14abbf2d 0.20909086 0.8886699 0.940669 0.036553003 -1.8081598 -0.22371013 0.27028477 0.7500449 -1.8153191 -0.6280855 2.3987124 -0.35753295 -1.8260219 -1.5495511 0.97288513
696bde1ed50190c9306791fbab63bc59 1.369977 -0.16624351 0.8503484 -2.3552332 -2.200867 0.44505525 -0.9438763 -0.39684227 -1.4229484 1.3552507 -0.20450152 1.2866257 -2.5596642 -0.59172404 0.9706625
62f03aab28c27c2b55851c874f9d8e7f 0.10544929 0.94055593 1.0480797 0.06291559 -1.8241117 -0.16678947 0.29111987 0.71381027 -1.7863897 -0.6778684 2.435646 -0.57647836 -1.889746 -1.5854626 1.1035051
580318746fa4f72e7ad8ffab04e02679 0.48920247 0.16703473 2.0547104 -0.5731401 -0.7567828 -0.12634063 0.5298595 0.93971634 -1.2181289 0.7475002 2.0130062 -1.0834152 -2.1471286 -1.8579987 1.3472956
9efc9d26f0dbd4e115249d4160fe01a2 0.15266079 0.68656313 1.0693573 -0.10184217 -1.6769063 -0.50958836 0.19299187 0.99316394 -1.6662079 -0.77281487 2.389539 -0.47490096 -2.002685 -1.7016447 1.1887246
b51cb7da26a64780bea3118e8e8806ea -0.028040502 0.63701046 0.9162238 -0.10778815 -1.9481542 -0.37134454 0.3829269 0.927325 -1.8428795 -0.7678795 2.1494272 -0.55657834 -1.9652061 -1.7156347 1.0637738
8d030b3b036851706a72936f14dd236d 0.085572064 0.72221094 1.0111663 -0.108802885 -1.7908891 -0.38856217 0.2401726 0.83188736 -1.8147033 -0.803053 2.2205124 -0.6522348 -2.0054095 -1.5997272 1.1245663
0acbdcecde52b7c6d72d97483dcffc09 0.27230048 -0.118494295 1.945198 -0.6540311 -0.8894139 -0.11254992 0.6791476 1.1315584 -1.1634071 0.6582149 1.715153 -1.1983763 -2.1310885 -1.8830274 1.3367528
250ece9fe2f5bba7ef185ec374044412 0.023447614 0.86381763 1.003241 -0.0070528113 -1.9030648 -0.21319786 0.19052848 0.9616455 -1.5919571 -0.8152189 2.34144 -0.43861422 -1.8343948 -1.5821724 1.1512883
ea5ca2a45968433f5a5ceb77862e515b 0.42745334 0.2654623 1.9437516 -0.4832614 -0.945751 0.055643234 0.55688936 1.0418813 -0.9821854 0.588101 1.8891954 -1.0927733 -2.0504274 -1.7224219 1.475771
c66641bf1a0466e61540499593b51539 0.018730838 0.6915976 0.9841936 0.02073073 -1.8105735 -0.32713383 0.31671894 0.9994275 -1.6259279 -0.782856 2.293627 -0.5254103 -1.8979867 -1.6770754 1.2255311
918ee00634b36f3707926b317c589023 1.1540514 -0.4264805 0.6916316 -2.6967402 -2.0605495 -0.08268463 -0.88199174 -0.23463035 -1.33536 0.92933744 -0.43070582 1.1132181 -2.7811244 -0.8520757 0.8064314
12f4398761557037bb916bc0b7ede89d 1.1834403 -0.31240186 0.68869036 -2.6401117 -2.2435844 0.099026665 -0.99795973 -0.25911763 -1.3804283 0.9936606 -0.46892124 1.3008788 -2.7553055 -0.8305032 0.7594644
f515db42a5c0b7fcb9306d2794deaea4 1.2361842 -0.3886351 0.77624243 -2.3700032 -1.959517 -0.046194933 -1.0840302 -0.34001353 -1.4791806 1.0914142 -0.19456893 1.395168 -2.8280208 -0.7664901 0.97019637
2f940e7de0d50d756d802a30e29dcd87 1.1786144 -0.4637038 0.7402776 -2.459693 -1.9022382 0.10014207 -0.8259735 -0.4067473 -1.3799889 1.1825578 -0.4481534 1.1438415 -2.8407788 -0.8841515 0.8113859
d297b9ec61c82af6794b85f3b5a80958 0.14610794 0.8280172 1.0371125 0.06194934 -1.6042335 -0.40227237 0.121359594 0.78410643 -1.7110583 -0.72939134 2.4995816 -0.38294566 -1.8328208 -1.5368848 1.117254
6d1a58afc547fad004c61311a720e333 0.175316 0.97850233 1.1578743 0.049918026 -1.8552647 -0.28788814 0.31564012 0.84110355 -1.802158 -0.65989333 2.4891303 -0.5095219 -1.8236421 -1.6189489 1.0870819
f7019d6bc501c474ad5bd92955635103 1.2772009 -0.24655397 0.82373476 -2.5157583 -2.0519981 0.25682065 -0.85362095 -0.38108683 -1.4547004 1.2796286 -0.3670079 1.1354175 -2.6239882 -0.81035626 0.7693618
f172d51c0721180c1b2c56e2ad12321c 1.2894126 -0.3264959 0.70280975 -2.466955 -1.9585897 0.13798618 -0.87432206 -0.44102454 -1.5040601 1.164904 -0.2553376 1.197786 -2.720975 -0.8292992 0.807373
f2e6c913402bbb4efce3e94ff2702748 1.4081701 -0.19308762 0.669816 -2.562979 -2.2173712 0.1431244 -0.9541267 -0.012734013 -1.2231046 1.0268303 -0.21029729 1.2631215 -2.5312288 -0.76757765 0.8830111
7428cdca2cefe379b9aed8af52f306b9 -0.42284188 1.3129885 -0.876177 0.010658675 -0.93226343 -1.2156099 0.6457942 -0.25031224 0.22082289 0.9256626 0.16646954 -0.3919486 -1.2713358 -0.0009926922 0.98067605
110d4ab5bda821b40c7eae9c9bd92ce1 0.7309708 -0.75555515 -0.6431019 0.17554389 -0.8872768 -0.48981613 -0.66231626 0.15926726 0.19941635 0.6567262 0.4306488 -0.46261263 -0.19822095 -0.37663406 -0.4346343
c1bb4c0b7f87e1e4e68efa803bbaf8f5 0.8485299 -0.014399566 1.7663766 -0.23192509 -1.4029589 -2.5208237 -0.23687553 0.26881427 -1.1480665 1.2858007 -0.43650356 -0.58721656 1.1859512 0.6600927 0.60969
75ae5fd243e7a078be13a185c4a21ff7 -0.6390721 -0.2878089 0.7222641 -0.08920988 -0.8326298 -0.43426734 -0.1961539 -1.0162798 0.5946579 0.15865593 0.040890057 -0.10443499 0.32825243 -0.89949447 0.73380697
4437d0fd50c65940e3aedc0cb84accee -0.17984687 -0.27752736 1.6129909 0.5754474 -1.7734826 -1.2155461 1.2314441 0.044622805 0.8853424 0.87115204 0.9312197 0.58081734 -2.8935268 0.44060162 -1.4013829
22ca0dc2f96082c2c3f8ef0e9558f4ee -0.6916534 -0.29173565 0.669968 -0.038565166 -0.6988443 -0.43701366 -0.14768527 -1.066731 0.65011185 0.21308656 -0.04997352 -0.31634828 0.2681479 -0.84978694 0.72969013
5911f676c4de02f33d938ea5ec360227 0.044801574 1.0382311 0.98548007 1.0222166 -0.5776225 -0.5866782 -1.4595329 0.32568663 -0.18186674 0.41836634 -0.78209776 -0.77871484 -1.3832926 -0.6080575 -0.31862146
d46abbf15431089102517c5ddd2f27f2 0.80218834 -0.6135431 -0.54975903 0.3722777 -1.0134056 -0.24985161 -0.7217146 0.14801742 0.11047879 0.6316666 0.5618373 -0.45633355 -0.19963275 -0.28775686 -0.33725417
ca7765bd8e548dfee09960b84068f45e -0.028024737 0.74157065 0.9331994 1.0309416 -0.65218604 -0.7572051 -1.4286635 0.2964053 -0.22228116 0.27524084 -0.9556774 -0.65132195 -1.4747218 -0.55457383 -0.23325647
025de0dffcede8bb542c6e4ea1c7b3f6 -0.57162005 -0.06415754 0.74618787 -0.054123428 -0.95687777 -0.245861 -0.11428092 -1.1843415 0.6513573 0.1824255 -0.05882436 -0.2856034 0.3323027 -0.6912944 0.72180164
fcf61eb6e99c196bba9ade2bf20f22eb 0.019097297 0.8160952 1.0060407 1.0995898 -0.5743696 -0.5791647 -1.3853755 0.31831738 -0.09563891 0.37480772 -0.91100043 -0.9343376 -1.4893645 -0.5536857 -0.13348672
b940fcac8ad5a09b587ab1ef7554eeac 0.69105804 -0.7404853 -0.6005085 0.34076267 -0.79270905 -0.42602947 -0.5341499 0.16862793 0.04222175 0.75874406 0.5015882 -0.5909623 -0.21674347 -0.42372006 -0.35671812
bdf492ed5d691e6654df9ba9bd196353 -0.19399229 -0.4109725 1.5727398 0.51997143 -1.6309516 -1.2921884 1.3138134 -0.101761915 0.84467846 0.9756275 0.94912785 0.31201997 -2.8783967 0.499684 -1.413147
486a53268f55f6ca6e246f94b65922bd 0.7301842 -0.23487584 1.6002216 -0.20724241 -1.5390966 -2.4516199 -0.063307 0.30011392 -1.3286871 1.1724664 -0.58230215 -0.6275953 1.0402423 0.7272485 0.6222751
43f8452d636d0115893681a6974d7da7 -0.6209791 -0.16713527 0.74897 -0.16477764 -0.97780776 -0.47788045 -0.27326328 -0.99708086 0.65899485 0.08669272 0.018196676 -0.045878917 0.40618345 -0.775039 0.6664726
3fe56a8f9d7e71f6d5f8f8e47388e400 0.72915757 -0.6380502 -0.6333797 0.30805454 -0.80776453 -0.37722173 -0.5889046 0.13604091 0.12269178 0.7095106 0.4806058 -0.66098374 -0.14461134 -0.4247046 -0.42459387
84b47d14996241988df6a10f0ea6f318 -0.4501538 1.1557581 -0.89661777 0.025652828 -1.0507603 -1.1243522 0.63466036 -0.17812403 0.0038655156 0.9344695 0.22504796 -0.36361486 -1.2486395 0.13990356 1.0311792
d0b1178f93bb16c63bb28983c843c044 0.85416603 -0.18274179 1.6582555 -0.09337657 -1.3466625 -2.4553502 -0.1724619 0.00646675 -1.3888373 1.3179973 -0.4945953 -0.5714778 1.0440999 0.70851564 0.6739924
ed10b713984ff1be760344e2161a2edc -0.34424236 -0.45695284 1.6077741 0.5022824 -1.7039392 -1.2611529 0.9995407 -0.1516544 0.9463559 0.8254161 0.97407264 0.40303573 -2.9821768 0.6427923 -1.4622356
859f570be034bf8100f359571fa4ab3f 2.1915166 0.03462112 0.3995921 0.9168132 -1.3015996 -1.6430621 1.6823637 -0.8665815 -0.104959846 -0.79993254 0.077412814 -0.3221528 -1.560057 -1.4227324 0.5788757
e70c5da00ca2586379e60efeb1c88f06 0.66640776 -0.59947807 -0.5541824 0.39154884 -0.9213388 -0.35589734 -0.6589265 0.31258708 0.11718881 0.63776135 0.55546516 -0.55995315 -0.11146996 -0.38044816 -0.3351046
810b88a9ff1b7b724e22143863ea34bc 0.8299912 -0.18649462 1.6388766 -0.1658555 -1.3735702 -2.3327649 -0.1789508 0.030846298 -1.428903 1.3800545 -0.5076798 -0.52587944 1.0502101 0.67248833 0.62774485
301c55eb55a54293a6b1a2c0d5ab4ac9 -0.6717159 -0.15161756 0.74025446 -0.08583019 -0.9141378 -0.41304073 -0.14501417 -1.1205976 0.44272667 0.06354889 0.054597136 -0.12332631 0.31352824 -0.7543681 0.6735531
b4442f412422f3dba6601e2cac7ca006 -0.56107455 -0.19742991 0.7270032 -0.1145973 -0.9514503 -0.3254743 -0.029835936 -1.0852693 0.6173879 0.14110804 -0.09101047 -0.20610042 0.39692777 -0.8344565 0.64357066
99f9ea8ae2da19bd0641d867f0841c9e -0.036212277 0.7826456 0.9173119 1.0543872 -0.6070553 -0.68444085 -1.3860759 0.2473356 -0.18257399 0.3755044 -1.01271 -0.7352057 -1.553566 -0.59556705 -0.1837007
814e86bee38a223616b26ef4e53f86fc 0.83121884 -0.058311034 1.6842493 -0.14815606 -1.3844554 -2.4037178 -0.14542568 0.13220395 -1.2782676 1.295465 -0.60288465 -0.5374179 1.0844585 0.6389671 0.5779692
950e49e66dfdf94d7610969bcf0cf357 0.7674063 -0.59404397 -0.55690503 0.26405853 -0.71337885 -0.495898 -0.63954127 0.13769642 0.03710928 0.6994235 0.62344575 -0.45822942 -0.1298675 -0.4946528 -0.49847782
31118cc22e9df652fb0b79ad7373dfd3 -0.5536524 1.1252217 -0.9349805 0.19472489 -1.1649421 -1.1616757 0.693771 -0.16181904 0.013418604 0.8358867 0.21555986 -0.2619763 -1.205832 0.20216054 1.0740545
d70b1f1bb78e523b2acab023795320eb 0.056014106 0.8633774 0.9861161 1.0644206 -0.60750234 -0.5470718 -1.3594371 0.24045889 -0.15361695 0.43350884 -0.99070317 -0.77439934 -1.4916989 -0.5786694 -0.25280103
31c8e9178f846d755a97f6c0c8c864df 0.8313868 -0.63101345 -0.5959552 0.4250312 -0.79153246 -0.37738177 -0.6474882 0.16395399 0.109026425 0.73132545 0.56439674 -0.5250504 -0.14698331 -0.4132501 -0.29752398
0246dcad516c3e5c83b3e78591ab0735 -0.39073256 1.1754272 -0.8480409 0.22438839 -0.91572064 -1.1428235 0.6546493 -0.20513572 0.11348868 0.9307889 0.32833365 -0.37891826 -1.2699493 0.15061155 1.0807139
4db8e68a5ad3437c705d8fbf9bed6756 -0.7032288 -0.14494438 0.79099804 -0.09295915 -0.8930416 -0.4492882 -0.18920457 -1.0298759 0.4554872 0.17073701 -0.025194667 0.052881327 0.2938869 -0.787487 0.5569942
447fd99571809c9b30a2f5a9273909c4 2.1043522 0.08520518 0.32820144 0.88628745 -1.2173518 -1.5108521 1.7043067 -0.97473973 -0.1887622 -0.6743314 0.10015342 -0.24196637 -1.5320134 -1.5566455 0.50040656
35dd6bbcaf3821030b67255528ef3c79 0.7790358 -0.21319939 1.5153404 -0.13139124 -1.4462751 -2.469159 -0.0727112 0.114583515 -1.3764856 1.3175677 -0.5316767 -0.55029345 1.0765604 0.728144 0.5331747
c670aa1452929d8b472295971fce8826 -0.4287528 1.1817528 -0.89189214 0.19487259 -0.98495585 -1.1210134 0.63543475 -0.21108535 -0.03892894 0.9282238 0.35496303 -0.22237441 -1.2518277 0.110741556 1.0630723
77359c457903875a7ce6a805e2eb47ea 0.78135645 -0.6392457 -0.58808607 0.37748376 -1.0042357 -0.3603987 -0.70953524 0.20349212 0.09301236 0.62141067 0.5945666 -0.42734718 -0.1784892 -0.33200562 -0.33802262
56ee1f1a3de3d5929c228e5a16273349 -0.66002107 -0.25478122 0.757445 -0.23259148 -0.74539226 -0.66033584 -0.23011245 -0.8929707 0.72513515 0.074776396 -0.08038259 -0.1959473 0.3301142 -0.9665642 0.7223295
780bf38ccdd94d9ddbc19a1a078072e3 0.76864386 -0.6625712 -0.5899444 0.25836274 -0.90058726 -0.24705783 -0.58667326 0.14471723 0.20874587 0.69634044 0.4163151 -0.7461736 -0.21687149 -0.3261458 -0.33240798
5975773f29aa3b4222d90cec5820b5ed 2.2178216 0.09927264 0.24484183 0.9956647 -1.2868259 -1.5900675 1.6154366 -0.93664795 -0.15303089 -0.80354375 0.098630406 -0.22256324 -1.5275086 -1.4931856 0.5693686
a1429e1456427184676a900222479487 2.2444625 0.10223909 0.29411072 0.83979964 -1.3822556 -1.5342385 1.6437082 -0.894762 0.008768523 -0.7672599 -0.01592478 -0.27859676 -1.5539181 -1.5174606 0.5442152
753e587cba5b7c94fe234b8b60609f2a -0.73800945 -0.2220195 0.70166916 0.100241184 -0.92456454 -0.3890317 -0.10734645 -1.0905628 0.3551222 0.13774504 0.060793363 -0.16732357 0.40523782 -0.7914195 0.77293825
911557bf8542e38a2e955027e82601d1 0.0089651 0.7857462 0.9378585 1.1348947 -0.61773074 -0.7057611 -1.3811449 0.14942493 -0.28056574 0.47164816 -1.044729 -0.67763376 -1.5354837 -0.53951967 -0.2683563
df318fa7ed1ec9a017424e185f39ae3e -0.4377078 1.1863259 -0.94198376 0.14150259 -1.0317137 -1.1717887 0.6342682 -0.23252584 -0.075161576 0.9504201 0.29416564 -0.15853627 -1.2602189 0.07914519 1.0154624
f0fd39b5fa507b018473364e73649dc9 -0.5470984 1.1504766 -0.8764659 0.08682012 -0.9543171 -1.202334 0.63897735 -0.22644211 0.14318469 0.88302624 0.23399168 -0.50924927 -1.2572201 0.15727177 1.0615393
6610654312e1ff13576654854e446d65 -0.0637921 0.7189788 0.95821023 1.0738755 -0.60342646 -0.5182291 -1.330372 0.27644107 -0.19470812 0.48006198 -1.0630034 -0.916073 -1.5902644 -0.5375813 -0.15193841
d1c02a9f98718bb4b32e411ef2855994 0.0025309757 0.84648573 0.9353244 0.99531424 -0.48353872 -0.69664323 -1.4629906 0.22488397 -0.22007978 0.41546348 -0.9039441 -0.7693483 -1.5492227 -0.5859359 -0.23615952
5f034c75fa7d200435aa8eb809b99cb9 0.88147527 -0.015905814 1.8355021 -0.13073961 -1.373661 -2.4537714 -0.16360973 0.16518977 -1.2793438 1.3323675 -0.4141341 -0.5200414 1.0898494 0.67749727 0.64153904
06371fd4d6dbf9fbcbdc1b3372c8b5ab 0.7807324 -0.7248374 -0.5829884 0.34739783 -0.8849047 -0.35373542 -0.6733488 0.1326948 0.019140804 0.73778737 0.5465098 -0.5073699 -0.19341464 -0.35834542 -0.31423345
c6e945b47e320ff133cf10b95e696c55 -0.4967025 1.136892 -0.8642849 0.23777317 -0.8313158 -1.1350163 0.7041366 -0.2165331 0.008089897 0.9689775 0.30706772 -0.47931468 -1.2310115 0.053646237 1.0225092
fd177bdbc34598cd63fa65dd36950949 -0.3863169 1.2860141 -0.9213885 0.012954921 -0.9975493 -1.0880139 0.513335 -0.19456355 0.2351965 0.89996874 0.21336243 -0.5239158 -1.2559533 0.16977322 1.0312488
e7748a5cadaf2045d7a3f0a5e8a74b98 0.99300236 -0.58104944 0.80023754 -2.2592883 -1.9385968 0.15694667 -0.819536 -0.4996511 -1.5131905 1.2102392 -0.3830857 1.2086209 -2.7626085 -0.635595 0.8464803
eff9bf15ee6922a26f1f46d32a7b0353 0.071883425 0.8978003 1.034174 1.0561819 -0.76179403 -0.5957342 -1.4239622 0.39065897 -0.13259993 0.33726856 -0.9632862 -0.59072685 -1.4703254 -0.53024983 -0.22200875
a424be6891f4830005a2e1c0e6aaa778 0.8613413 -0.65654826 -0.6155446 0.3283027 -0.670049 -0.49461395 -0.5838243 0.03839386 0.025246708 0.8201887 0.59887075 -0.569567 -0.17597999 -0.47999883 -0.3911744
e559ed324a5181f07a260286db9258c6 0.66565967 -0.7568581 -0.61769533 0.4526526 -0.76424265 -0.44556358 -0.6068046 0.016243681 -0.08020835 0.7412477 0.6003833 -0.5331968 -0.18231578 -0.38830236 -0.37303546
64cfc0911e9e39d7c984ec5f696951bc 0.7900534 -0.67369026 -0.64143336 0.3186339 -0.90877706 -0.41885677 -0.6024868 0.1349121 0.2078608 0.58022153 0.43420506 -0.65152895 -0.19605981 -0.40033337 -0.4716676
bceec352bf4e49a3b58608fd488765c3 0.65382504 -0.8423378 -0.6435326 0.33528247 -0.8526495 -0.4211503 -0.58244425 0.19432957 0.18319993 0.63721144 0.4501019 -0.5497825 -0.24742006 -0.41809148 -0.3140612
f680b51d0beda0fcfa62ec4441beec2d 0.75248915 -0.60594094 -0.5947266 0.20500423 -0.72826505 -0.52919316 -0.622038 0.14295264 0.16174352 0.6246547 0.5893387 -0.6269925 -0.1210703 -0.58529705 -0.5718869
e9f9767d0262ff2f5e15f789584d32a2 -0.4313471 1.1386993 -0.84715617 0.06109085 -0.9437338 -1.1002272 0.58929956 -0.17830569 0.05951826 0.89272064 0.2793957 -0.37752643 -1.2933781 0.13960063 1.075448
7a3d936cf7cf0e8e80c9878cee59464e 0.79109246 -0.69190675 -0.5877433 0.30600822 -0.93973476 -0.3592981 -0.73425376 0.12045045 -0.050178893 0.7014451 0.54829824 -0.39280522 -0.18960898 -0.38879684 -0.33378512
352e8ffa8556c5ff5fd8ee2ef86cb0e4 2.2423272 0.18845156 0.34425813 0.9318495 -1.3126807 -1.5748823 1.5935495 -0.93022436 -0.032922674 -0.79941237 0.16056335 -0.08214761 -1.5280876 -1.5056984 0.5375528
da3c6fc66c659ca14ad95d97f30709b1 0.7168939 -0.66838944 -0.63572675 0.30211443 -0.7675703 -0.4546081 -0.55325836 0.10252713 0.009264358 0.7462409 0.5192121 -0.6073395 -0.22593267 -0.40056726 -0.43947423
6b019dbc197abad60e88d2be3998de85 0.8141592 -0.08964552 1.7269735 -0.083349004 -1.4817247 -2.4320874 -0.26692846 0.15185876 -1.3035032 1.217383 -0.52736175 -0.6123887 1.0878801 0.74516493 0.74301994
aef1ddffa9f92ccc279869120d15123c -0.66286886 -0.1418773 0.72906584 -0.057602387 -0.96764714 -0.31629422 -0.1087865 -1.1116855 0.47511172 0.20930049 -0.057149667 -0.035920106 0.4152215 -0.9050921 0.63254195
40cc46e611b2d2c436de557e062a5447 -0.8476126 -0.2384307 0.6633999 -0.038130954 -0.96557075 -0.5600651 -0.06325111 -1.0538664 0.33417168 0.06952074 0.096009135 0.013613524 0.4312766 -0.91020536 0.5762659
eb1bfb05bd7898213793264040dd40c9 0.056708626 0.8889046 0.9847349 1.0557674 -0.6657703 -0.63487196 -1.4302872 0.2721362 -0.20486365 0.37970895 -0.92013603 -0.7403636 -1.416001 -0.5254144 -0.269955
94186a134d55ec9d02ca33f1e82b2094 0.7520899 -0.1373014 1.7797424 -0.14657031 -1.4192216 -2.3499703 -0.10177572 0.14851037 -1.360551 1.3481121 -0.5199324 -0.69702965 1.1030116 0.6593795 0.6017893
050db09ab8e97205f55cd0456fb234a3 -0.6735921 -0.2107258 0.7048116 -0.17950355 -0.9034056 -0.60941744 -0.19403858 -0.93453634 0.6535138 0.039749086 -0.03880004 -0.13670155 0.39963642 -0.8090157 0.7186363
f2db79a3a2ba039613f0aecbe1ad75ae 0.7451253 -0.6039182 -0.5566042 0.33661643 -0.8169831 -0.47755006 -0.63831323 0.22451033 0.070034094 0.66208917 0.6108176 -0.5794397 -0.12359001 -0.40922448 -0.4484272
e202d242711e3892708fa98d3f349aab -0.6361665 -0.07284464 0.7933341 -0.024560297 -0.9715148 -0.31398857 -0.103699535 -1.0261152 0.67978966 0.19812115 -0.04048549 -0.14573532 0.39463052 -0.8226555 0.77081156
74d1b34f6d457a10bd1274c0e9430e23 0.03391495 0.66979223 0.9283633 1.1363194 -0.59874386 -0.70589715 -1.3980834 0.27010414 -0.26826814 0.30668956 -1.0340885 -0.8336974 -1.5737488 -0.55110496 -0.13276407
26f1a899fbba192355668884e7d5800a -0.6477422 -0.23483087 0.71874714 -0.070827946 -0.8415299 -0.39495736 -0.09298846 -1.0563056 0.62784374 0.19340079 0.0044641006 -0.19122417 0.32298732 -0.8789373 0.74523985
6f920c7c2451d541eaaed90458e75685 0.720831 -0.6084826 -0.68290013 0.2481613 -0.9704746 -0.48637807 -0.75097996 0.21685424 0.10669832 0.53216547 0.52408516 -0.36102703 -0.109102696 -0.44737884 -0.41012773
e8bbbc56ded5716f113168ab82b78e9d -0.70938116 -0.20544077 0.7076648 -0.04266648 -0.8402938 -0.42595693 0.018611612 -1.1020277 0.440859 0.21131448 -0.078065395 -0.21860461 0.37604207 -0.88412714 0.703084
0bda5c30fe33941a9651877b580da773 2.1565027 0.060323667 0.28427023 0.8832051 -1.4201909 -1.4809468 1.7163324 -0.94028074 -0.08544909 -0.842828 0.0076398454 -0.32102358 -1.5641917 -1.4215175 0.5073469
9ff7a5c2d7c96121d97b8fca13dfcde0 -0.47037983 1.2980682 -0.8950494 0.18468867 -1.1337228 -1.0017025 0.60130537 -0.28998712 0.045795754 0.8896877 0.2674341 -0.28814238 -1.2229043 0.20293646 0.90365267
1ecf39dbabfb408d50437158925687f7 0.7589891 -0.5689179 -0.5782871 0.352323 -0.8446849 -0.41270345 -0.5556004 0.16954507 0.100496426 0.69277185 0.6084821 -0.58957726 -0.12982066 -0.44461745 -0.45659983
e01b4a8dc0b236d5e767665c34892090 -0.5544157 1.1800572 -0.88671756 0.22286485 -1.0152693 -1.1269393 0.5880131 -0.13281454 0.09678161 0.7883257 0.32444307 -0.44769007 -1.2357771 0.11234752 1.0789075
cbca92b37cc10585763abc9bce5b710e -0.36947152 1.2445306 -0.8600561 -0.12803149 -0.9982605 -1.1932112 0.5247808 -0.24320444 0.15257183 0.7634919 0.20549104 -0.32850337 -1.3262668 0.110958666 0.99401593
38a88111d1ea34bb096748c1eb5d27ad -0.5372788 1.029183 -0.9154322 0.17507574 -0.8891339 -1.1682931 0.61949146 -0.25114995 -0.13890189 0.9305672 0.30408552 -0.25651518 -1.3170545 0.09048953 1.0439318
ccb9de39adb8e2e30910d79f027af6e1 -0.7493006 -0.16547507 0.76575387 -0.052290328 -0.9744095 -0.45547867 -0.23878191 -0.9960313 0.6390036 0.052729625 0.10466201 -0.1305145 0.35571045 -0.7874851 0.6416064
ac059f29429131d649b72dc4961ec2a4 0.062363286 0.93719894 0.9514493 1.0377411 -0.49474698 -0.6259326 -1.4525988 0.19824128 -0.2504819 0.4844207 -0.8534099 -0.72457886 -1.4641774 -0.61986315 -0.27791485
885c2c03d3d3a124f9923a256a2c583b 0.7464571 -0.17722365 1.6687131 -0.13970552 -1.37037 -2.5008738 -0.12506604 0.03862691 -1.3956214 1.3001227 -0.5718403 -0.48753446 1.0521744 0.68789786 0.6479506
428fd1655b60b31c8be742171b012c82 -0.3810532 1.1036373 -0.90401894 0.029576035 -0.89935553 -1.2991548 0.7546784 -0.32980976 0.03813637 0.93948746 0.09238656 -0.41207913 -1.3589556 0.09011762 0.99415
57b15295e51341d7fb8f03f2ee2c05b6 0.78394043 -0.56760395 -0.5730832 0.40360925 -0.90120286 -0.28871748 -0.5654092 0.18499199 0.106033795 0.71437573 0.5947191 -0.54640687 -0.14673111 -0.47308886 -0.33932537
9cc3f611195ed8a26283482f1aee02ba -0.655147 -0.20076714 0.7969568 -0.15704398 -0.8801677 -0.4076635 -0.027100116 -1.0311873 0.49591932 0.1807904 0.007531441 -0.15432423 0.4199935 -0.87134457 0.6393606
f026948f66ff47f88e6165ccfb823e8a 0.009600831 0.8336468 0.99457216 0.9855893 -0.62952137 -0.68196857 -1.437309 0.24323082 -0.19567674 0.31821764 -0.9203817 -0.75739855 -1.5099828 -0.5165218 -0.25311288
dfec5639a6d48c11328f7c61b8460f19 -0.6055676 0.008537175 0.83991414 -0.056806356 -0.9215835 -0.27353108 -0.19695674 -1.0776443 0.6585314 0.2661677 -0.046979096 -0.2818545 0.47368482 -0.7710168 0.62474185
253be229eaf0003bd8f7c6aac92158a8 0.7032634 -0.62029105 -0.64282894 0.18113513 -0.7766573 -0.46036538 -0.6300282 0.23448648 0.18214037 0.6528354 0.5623903 -0.5667513 -0.16087762 -0.54449886 -0.47898775
5ef737ddd3b2843499aeab38389365f2 0.8411826 -0.27380726 1.6247717 -0.1767196 -1.5181125 -2.4314976 -0.17999215 0.23430398 -1.2236024 1.1255653 -0.6347024 -0.5061592 1.015896 0.7507023 0.7045252
bc852403ae30fcadf03290040998ff70 0.8028822 -0.71630365 -0.6275472 0.30851907 -0.961065 -0.18420754 -0.5307102 0.12920427 0.22817375 0.7767422 0.2925528 -0.75152516 -0.20660488 -0.3895523 -0.3833988
b2167d59558d7c50fcd7e59a83e633ef 0.06485888 0.83505946 0.940992 1.1471792 -0.5194388 -0.55192 -1.27917 0.14839709 -0.27805877 0.5074514 -0.9246723 -0.73826927 -1.48155 -0.598538 -0.27615198
904bca79d06482bbccc050c77dc38753 -0.44222733 1.1840452 -0.8595964 0.21612293 -0.9929032 -1.1339301 0.76409566 -0.21963438 0.023611737 0.92467886 0.28719854 -0.45058003 -1.2316566 0.14713995 0.99403137
01296ecf775a1f81d304d72ecd05ee67 -0.60690945 -0.24893342 0.75446695 -0.06399916 -0.9650468 -0.44014028 -0.12955013 -1.163938 0.5798875 0.12126663 -0.019062014 -0.18646991 0.359672 -0.745471 0.72338885
649f2550b1e18037badf6f24fcd90673 -0.3242167 1.3362224 -0.8972707 0.016445247 -0.9441276 -1.1743797 0.54699385 -0.25162244 0.16325751 0.8826149 0.2507238 -0.5403067 -1.2015002 0.1666703 0.9222312
2f9060f5f6c849151ec9049357812a17 0.71140754 -0.82795537 -0.620391 0.42286402 -0.93427485 -0.33965746 -0.61626005 0.16002725 0.1927091 0.6913607 0.35039124 -0.5518622 -0.19118701 -0.33317044 -0.2787481
7b982bdd691f850bf98de7fc804a43ef -0.6608564 -0.23373428 0.7227847 -0.120576814 -0.9300372 -0.3592038 -0.1630804 -1.0501333 0.5771057 0.19017139 -0.10774316 -0.14613695 0.2875443 -0.8232109 0.67650074
37d73e1946d25001670ba595f5953044 -0.69722116 -0.3016971 0.6655994 0.058016658 -0.8222884 -0.35664588 -0.023422124 -1.214884 0.2955592 0.20929925 -0.18669228 -0.1985675 0.31666926 -0.9248497 0.6713315
f35b581e30610bbddeec931aa636efef -0.6472447 -0.16053303 0.7164119 -0.09413151 -0.90789014 -0.38098675 -0.12311487 -1.125646 0.59786725 0.17248145 -0.028646275 -0.15990472 0.27130333 -0.72331506 0.7197452
357c26ed5364ad455009b7461feaba69 -0.4886512 1.1340432 -0.9136391 0.098775506 -0.9905578 -1.1363199 0.6422294 -0.250765 0.12390894 0.89874655 0.21555176 -0.42610785 -1.2787995 0.098603375 1.0292373
9c8231d50ec3ddb78d8c27e19be3bcf7 0.7756393 -0.15712935 1.6957768 -0.011396712 -1.3056517 -2.5349798 -0.15977728 -0.030589562 -1.4259598 1.3127801 -0.4561767 -0.55046767 1.0454 0.6755225 0.543596
411dbd9e2c7d02298ac41c621de79e2f -0.43312615 1.2703825 -0.8706347 0.09329765 -1.0564146 -1.1035566 0.656122 -0.16383892 0.14245005 0.8313919 0.25968814 -0.22161004 -1.2354333 0.053794395 1.0168611
825da84f0ce452b582384ecef060372f -0.48933467 1.1093062 -0.89805216 0.03713612 -1.0024568 -1.0695211 0.62777716 -0.3358269 0.091885 0.8075667 0.16784683 -0.5390791 -1.2369604 0.1779904 0.9858909
465f4b44cf456d7c90dcfac904645b2d -0.4690318 1.0455711 -0.9314769 -0.06744471 -0.91393125 -1.3105808 0.6248978 -0.13556594 0.0002760456 0.93280256 0.15311655 -0.27021995 -1.3456764 0.01360475 0.9964994
3f07e5ced1151241dfee30d63344d6ee -0.6536761 -0.19490458 0.7478936 0.031039305 -0.90140104 -0.44861585 -0.1889649 -0.9118817 0.640572 0.034947205 0.05017547 -0.14428523 0.32619402 -0.8176088 0.8021875
9b7b8d852d2dcdc99dae422fc1cf6633 -0.36527166 1.2769378 -0.87703246 0.11220558 -0.9409373 -1.2399644 0.46823826 -0.25913247 0.09352152 0.78882223 0.3325412 -0.3671366 -1.2591602 0.21219215 1.0013562
27b22091187a5d9613edd9f4adb32521 -0.35573387 1.2414069 -0.9427633 0.0645919 -1.0136166 -1.2039739 0.61652 -0.25806397 0.04149759 0.897203 0.2577082 -0.24284825 -1.2097509 0.15440302 0.94867134
ce774b8e5c1426ae5677e72f954d90a2 -0.49257782 1.2294656 -0.93181545 0.04723342 -1.0047252 -1.314587 0.6810349 -0.19646956 0.03899042 0.8182368 0.3080698 -0.47037825 -1.2294389 0.08741889 0.875788
f357f1fb6fbcf7575f47899a817ae8b6 -0.45800826 1.183125 -0.86793166 0.08033584 -0.93826634 -1.2483587 0.45136034 -0.1940259 0.05047885 0.7482233 0.33472985 -0.24008712 -1.247796 0.14474516 1.078735
9d45bd6ccb888e969d5468572e674151 0.7879003 -0.65676624 -0.6101194 0.24027851 -0.8973771 -0.3860185 -0.6580998 0.18735628 0.21093011 0.6690261 0.49029344 -0.52477264 -0.16297007 -0.3890836 -0.3176074
b9d7e0eee64537bcd26a9cf055bd01b7 -0.4663887 1.1810229 -0.89079404 0.05274482 -1.0315862 -1.2941182 0.60376215 -0.2613972 -0.054701105 0.8708452 0.30997786 -0.16115537 -1.2329971 0.17311794 0.9627417
bd1e0e21b394d9430254ba45a33a6a76 0.6874046 -0.7182672 -0.65473837 0.37284523 -0.7253519 -0.45377558 -0.58559835 0.16766009 0.077158265 0.77188474 0.5010977 -0.5981486 -0.19627902 -0.47923052 -0.39338887
c7e57f81c6b9e920134bec84b765fa72 0.74166435 -0.06998947 1.6832422 -0.25590894 -1.3226113 -2.5023286 -0.16641141 0.1978412 -1.2468272 1.2417978 -0.4520192 -0.6881951 1.1316037 0.60246503 0.5347766
ea9288e4abab8d2878bb867a38f6826b 0.75582975 -0.7579905 -0.7019606 0.36675447 -0.9337302 -0.36700398 -0.56968904 0.10861476 0.08245655 0.6608145 0.36660457 -0.6179433 -0.26288435 -0.3388725 -0.36661363
8e0eb8e5862a4477b3a7739bb95f6c8f -0.5403741 1.1143698 -0.86108977 0.18402521 -0.9818206 -1.0650858 0.6748263 -0.16372044 0.08415595 0.89925265 0.2706207 -0.4801886 -1.2566192 0.14115268 1.0843043
61bb5a6fc3216305140726ee3d46033a 0.8280678 -0.57808983 -0.6010042 0.34498593 -0.8234527 -0.3487804 -0.6327 0.14245199 0.20255004 0.6983815 0.5094171 -0.6053737 -0.14527543 -0.45469388 -0.40943846
444cff9e4d973a58f4217e935e666322 -0.026355213 0.73052055 0.9908186 1.2138757 -0.6278035 -0.61768085 -1.3445785 0.32788298 -0.24454248 0.41042092 -0.96269745 -0.8154565 -1.4951162 -0.5190768 -0.15050374
4cb5db356a6adee01c4f86a597ff6e96 -0.5604667 -0.16235942 0.7167871 -0.09824658 -1.0488708 -0.33590865 -0.20141825 -1.0155499 0.6240145 0.02077598 -0.05454283 -0.11291622 0.33555722 -0.70640105 0.7905769
75439573fb4b63d76fa33c96be68ac4a 0.7438538 -0.63904434 -0.6239613 0.2293067 -0.8023774 -0.28398862 -0.60848725 0.043224607 0.21001804 0.78268164 0.490376 -0.7013421 -0.15000518 -0.3665084 -0.4099856
bcd33082c0027eef945166e4977a3864 2.1334193 0.05924501 0.27161866 0.8966079 -1.349319 -1.5474379 1.7009412 -0.8963953 -0.13812645 -0.7814971 0.042778485 -0.29045108 -1.5696361 -1.4774913 0.46158415
eb31368cb4745501173a4d72fcc54de4 0.79175586 -0.18878901 1.7654171 -0.183776 -1.4249071 -2.393116 -0.14433841 0.17946294 -1.3689071 1.2761374 -0.5533333 -0.61181104 1.0883273 0.6276737 0.73040116
96cbb0c57779071fe7ea0b6ba3a1d5ac 0.056494612 0.93719137 0.94236547 1.0372337 -0.7049436 -0.56822705 -1.392146 0.30416116 -0.18362205 0.35746777 -0.9210569 -0.63464504 -1.483788 -0.53120416 -0.23590769
9080f28bbe24201abb215773019e313c 0.7555881 -0.7578832 -0.62352437 0.4027019 -1.0057342 -0.34731057 -0.6384922 0.20164302 0.26948065 0.6508365 0.53847563 -0.5693753 -0.20711005 -0.3451895 -0.3663074
71f2372e3892017928551474e5b609dd -0.707787 -0.31776327 0.7348728 -0.10325169 -0.8160709 -0.5469678 -0.17679082 -1.0318213 0.46189022 0.11452008 -0.027870681 -0.14324959 0.28243014 -0.84697634 0.73417646
d680b35d2dba07a95212f9332646241c -0.008287929 0.8279519 0.9175476 1.0200177 -0.54786545 -0.6568192 -1.3510475 0.19281973 -0.13786204 0.44755292 -0.97299844 -0.8652669 -1.5461214 -0.5154379 -0.2425346
f6c34c232b7c04a67f39f92e2213a1d1 0.70545125 -0.75766075 -0.67425984 0.18675539 -0.79121107 -0.43888596 -0.61113375 0.18535797 0.11920817 0.73167646 0.5062651 -0.55203307 -0.22800684 -0.49807096 -0.4168593
90e0735218d9e163e1328273a7c94b5c -0.68237466 -0.22320545 0.76931447 0.05726574 -1.0315446 -0.33693647 -0.14381225 -1.0751853 0.5227504 0.1303865 0.11125605 -0.05611109 0.30339882 -0.65911114 0.74868315
71efafc45199984de531f2533856a2b8 0.008401928 0.8495362 0.97485685 0.98941815 -0.5131202 -0.68246996 -1.3856373 0.2839711 -0.173619 0.4120771 -0.98202795 -0.8722227 -1.4575955 -0.63450843 -0.25525165
6b4f7be48f64fc979de03ddd6065f488 2.300657 -0.0376521 0.37960535 0.93647087 -1.2556319 -1.6117781 1.6146573 -0.8219665 -0.016756777 -0.772201 0.061239105 -0.3683132 -1.5584238 -1.4118522 0.6976724
cffbb261ba251238914e57d138efbf4f -0.72537583 -0.23681597 0.65474916 -0.14609955 -0.8933854 -0.533323 -0.24504045 -0.98860115 0.48116085 0.09001686 -0.074896306 -0.09958387 0.40731823 -0.8505495 0.739957
b2b46f9ec067f3d99428e7c169eb92ce 0.07962798 0.80019057 0.94706327 1.061873 -0.53539395 -0.6071092 -1.376063 0.26947102 -0.110857286 0.4448493 -0.9722611 -0.7812412 -1.476212 -0.54667836 -0.18348803
f9b94fb7bd240cece5c4d3639e2fa915 -0.7233552 -0.28216758 0.7092163 -0.19532394 -0.7895519 -0.59963727 -0.23535071 -0.93663186 0.55932444 0.08023782 0.026472209 -0.076506205 0.33712783 -0.90932584 0.6430253
66e8913fd409e5dbaf457c975030f595 0.67893595 -0.2641703 1.6671134 -0.20312497 -1.3304167 -2.5854733 -0.18426953 0.24752536 -1.2080266 1.1408447 -0.5723559 -0.72581834 1.0058708 0.6799547 0.7004749
6a8c6e39e79b8040c062055f353a2135 0.8188546 -0.5250544 -0.6455019 0.2477628 -0.88495445 -0.42077675 -0.6868449 0.07753382 0.14205374 0.71291417 0.5273644 -0.48730722 -0.13247584 -0.33423296 -0.4792784
77ed32071acc8c2dd67803c74e06b697 0.05342847 0.87719816 0.89904785 0.97563845 -0.71256423 -0.6038494 -1.429949 0.319102 -0.1322693 0.3196019 -0.937365 -0.74614304 -1.4103302 -0.50259715 -0.23426713
c33797cffbb607d97870b155c7a80d1b 0.7522074 -0.26626146 1.5498966 -0.28252143 -1.416697 -2.4880674 -0.18923916 0.15268035 -1.4199326 1.2400932 -0.72498965 -0.521216 0.9786848 0.6179246 0.6461498
9191761fe6c1afee6368a3e7d8d4cddb 0.0027180598 0.7693303 0.94017786 1.184848 -0.5768221 -0.5833236 -1.2510899 0.24425754 -0.12800598 0.42058185 -1.0382591 -0.9404552 -1.5263505 -0.526727 -0.16912429
a33c45ec96b0c904a35c9159da167aa9 0.7391378 -0.6608056 -0.6174474 0.303923 -0.9282096 -0.3006068 -0.6357561 0.23286311 0.1309368 0.69236165 0.4259571 -0.65062577 -0.15344541 -0.39716002 -0.32254848
52642f2943a6cfb63c5ebc93c5ccb6d4 -0.6707258 -0.090058595 0.7582071 -0.06592963 -0.9461642 -0.38514784 -0.103873245 -0.9979658 0.53204954 0.118888855 -0.029673 -0.100371026 0.4296634 -0.8800162 0.5585039
1516225afbaf461b36e7fd254caa8bce 0.8705795 -0.48514026 -0.6344976 0.2084808 -0.7407031 -0.37742987 -0.63241565 0.13138956 0.18531303 0.7743978 0.4797274 -0.5428804 -0.14502698 -0.54077095 -0.48762956
d1c9ee6943ce4a942a600e2558a1017f 2.3064644 0.048160724 0.31487134 0.93495107 -1.3370138 -1.5177468 1.6095717 -0.9193212 -0.050644774 -0.7443028 0.015162914 -0.25039488 -1.5577148 -1.355298 0.56403476
d049098e8faae0c9604362cb43a972bd 0.7547836 -0.73493886 -0.5819006 0.39671516 -0.8236048 -0.49552763 -0.57391334 0.21606831 0.07460678 0.6577054 0.63338953 -0.55561095 -0.17434998 -0.46523926 -0.41619328
86d9283fbdae5cec4662b9879370ae8b -0.39543426 1.1549022 -0.92829275 0.025836887 -0.9532725 -1.094461 0.66285425 -0.18521667 0.19415578 1.0123324 0.1301234 -0.5465905 -1.3304714 0.08319793 1.1386865
3c17b434f9299f3aa1c693e7afb9f288 0.03156022 0.8959982 0.8872634 1.0249077 -0.6448445 -0.50992185 -1.4182287 0.30655113 -0.117381476 0.38565308 -0.91922456 -0.80051655 -1.4009777 -0.53953576 -0.14745729
9d24590c00131b4dc215bea8e63206b3 2.2352004 0.007395055 0.21544865 0.92919165 -1.2457598 -1.5405936 1.6713704 -1.0236393 -0.21056813 -0.6411252 -0.018778102 -0.19786976 -1.6257318 -1.4682583 0.5137016
37b922a498908ad4ee487f7f178a1343 0.79411286 -0.6654591 -0.6219891 0.291825 -0.9343692 -0.30659753 -0.5955837 0.27954957 0.16590126 0.6183312 0.45886305 -0.6499243 -0.19398838 -0.3659759 -0.26297945
e55aa5311a573aa9f636ff6b63bc4da8 -0.69934005 -0.20276628 0.7522082 0.029831273 -0.9451207 -0.38065583 -0.009275416 -1.1112177 0.4772772 0.14781706 -0.0054341927 -0.14705081 0.3572172 -0.8446275 0.6374719
54b47c8ebfbe2f8793a2d482e0692fb1 0.70450354 -0.7866182 -0.68909544 0.2843505 -1.0507433 -0.37816516 -0.6667946 0.1691904 0.10800734 0.54576796 0.36032256 -0.40436444 -0.29302153 -0.32922676 -0.4048575
e31e5e9ebdfe51708833855fd639b644 -0.39963502 1.2005198 -0.9510892 0.08238663 -0.9081789 -1.1526843 0.6407811 -0.3084908 0.06064238 0.88118607 0.12150921 -0.52424747 -1.3046378 0.116433926 0.9033806
179bfb8cc04840f51c73aed65f07cced 0.7880619 -0.6476642 -0.597495 0.20813376 -0.87379056 -0.45185846 -0.6194873 0.13792859 0.1650471 0.66804194 0.5000412 -0.63372177 -0.14615238 -0.41707557 -0.5243142
88ac53f10be6f4f9986ecf1acee462cf 0.8444962 -0.18594076 1.6552908 -0.19098026 -1.3408811 -2.5121636 -0.21163815 -0.0049225087 -1.3040966 1.2569498 -0.6291178 -0.49302864 1.0266842 0.6677464 0.63862073
aba2105923f3ada90343f4e99ee33e46 -0.33716038 1.0732487 -0.8894535 0.017021265 -0.9746877 -1.1440417 0.61452836 -0.1491914 0.1319114 0.84099346 0.13457842 -0.38239625 -1.2955211 0.11434739 1.1118401
b21352d4aa63be44acf437094e53749f 0.8326723 -0.6167166 -0.64060694 0.3382638 -0.6762437 -0.40075815 -0.56392854 0.05315563 0.14274086 0.77197045 0.51056564 -0.7598544 -0.16887741 -0.47943932 -0.4208082
2c4da26da894caa2f0b8abb96a85482a 0.83151007 -0.54413646 -0.70269006 0.31725904 -0.8189368 -0.39398047 -0.62070876 0.008207746 0.11020433 0.6907545 0.4788227 -0.59064275 -0.16561492 -0.41688186 -0.44081962
c2599aab669946f6484614b20d240ffb 0.7834564 -0.53705144 -0.6487232 0.30988613 -0.9255509 -0.28971845 -0.6973543 0.16102453 0.18610616 0.74389815 0.51061463 -0.5119505 -0.23415282 -0.36205763 -0.4150637
a32fed1db2db5ed593f1d683107789d4 -0.51029754 1.1471964 -0.8641245 0.22530714 -0.9712839 -1.1513581 0.59732753 -0.16442014 -0.06759794 0.8381085 0.30914298 -0.15116169 -1.2346988 0.069402635 1.020707
fa8779a90e94a03ae239148daefb14fb 0.76034313 -0.49528417 -0.6287984 0.23840612 -0.8578473 -0.44459704 -0.6792939 0.14302939 0.011925637 0.69652885 0.5815571 -0.5412992 -0.12364362 -0.3731466 -0.47989306
0fca91031f9f5a147f87c00b64e24fba 2.2630594 0.0687248 0.28844583 0.8051858 -1.2714151 -1.5224786 1.5257586 -0.9004698 -0.00049417 -0.8243719 0.075639635 -0.25750712 -1.5843747 -1.4887741 0.5625502
46257db7fb62050219082a17af8a44a6 0.75545305 -0.5903663 -0.5183158 0.3170561 -0.8635166 -0.37358207 -0.63448346 0.22048455 0.18868339 0.76317394 0.6960022 -0.5367295 -0.14268354 -0.32490918 -0.3773419
2729562b364401e3ab7ce6942604d241 -0.0065322784 0.819713 0.93119645 1.0271583 -0.6378041 -0.6437042 -1.379106 0.37643343 -0.083208784 0.31416538 -0.9526765 -0.8114141 -1.4923514 -0.54941154 -0.17444754
f242281a23b93aa4e0330bac28df24f0 0.8431373 -0.19538964 1.7013075 -0.23019078 -1.4101168 -2.5063472 -0.28239948 0.18026473 -1.1186836 1.1230185 -0.6252876 -0.6543668 1.055892 0.7193038 0.68414086
ac3cd33f2bd0e9209e390c9b78427245 -0.69169515 -0.25325412 0.7159491 -0.089427315 -0.93194026 -0.44114348 -0.14973724 -1.0182214 0.3996564 0.1116368 -0.0038362648 0.005101067 0.37741852 -0.89905477 0.64813054
202c8b07e108866fbc0a79ead5b93f37 0.8226052 -0.5526286 -0.56550384 0.3045332 -0.87519747 -0.31550026 -0.6205909 0.13616863 0.075964876 0.72292596 0.5876832 -0.6181049 -0.109374955 -0.38537627 -0.42354655
fec4eafef9c56a4c4c050f139f338861 -0.50408715 1.1363667 -0.8855584 0.043479927 -0.9540015 -1.1488205 0.6261533 -0.19583897 0.104057625 0.78416014 0.13642003 -0.48795617 -1.2694335 0.10168532 1.0452274
c9957ddcf89e8b63a07c9418d57cf926 0.79309106 -0.6030976 -0.61325395 0.3221264 -0.7413433 -0.33952484 -0.5836111 0.088149905 0.12651213 0.8135464 0.5099215 -0.72310555 -0.14300837 -0.39746845 -0.41115725
83c9a38700569c0ec91dfc0935ce52a6 0.73393565 -0.77457774 -0.6581038 0.1940603 -0.9721278 -0.4501134 -0.6457936 0.3453106 0.15955724 0.5099926 0.43419054 -0.58160824 -0.20847632 -0.48780143 -0.33745316
166156fbc5c42d74487a7d0c8dfb1568 -0.71555454 -0.20176671 0.747552 -0.097222574 -0.854682 -0.3410024 0.011535497 -0.991561 0.50348043 0.22050767 -0.050868563 -0.21888903 0.42792547 -0.9030775 0.5985257
b9e1fedcc745ccb2a8f77bb1161a2194 -0.4317076 1.2263461 -0.925323 -0.06060061 -0.9123832 -1.3054491 0.45710933 -0.1547737 0.2087049 0.674872 0.20250748 -0.37335297 -1.3595446 0.053815477 0.9782788
c42002baffad024db1d35a3c51bb7764 0.7395845 -0.69057405 -0.6271133 0.4090984 -0.7754205 -0.40030056 -0.5730363 0.18497716 0.06861638 0.74577665 0.5772269 -0.6016351 -0.18631794 -0.5073825 -0.38817382
929d18312557a38fafe9778d686e5355 -0.6825677 -0.2663029 0.7640649 0.031811483 -0.9549049 -0.41114476 -0.1390715 -1.1365323 0.49791965 0.11756087 -0.04583818 -0.1391317 0.31299004 -0.6728456 0.73789316
1ca1882002ad6d278f2df1d18819dece -0.548946 0.91541696 -0.9349371 0.07190793 -0.84991586 -1.2785715 0.60898745 -0.2180839 0.13898128 0.8962688 0.10942378 -0.44096026 -1.3562231 0.1312466 1.0836182
1c9d030426d214388fc451fcb68399e3 0.8668784 -0.6241021 -0.6055714 0.35150903 -0.78622323 -0.34333923 -0.6552734 0.062820375 0.11041802 0.7626102 0.5974261 -0.5255832 -0.17400026 -0.41195005 -0.36364582
0e4123339d98c05c687502bc80338c6c 0.045521006 0.7655671 0.9514245 0.9962196 -0.650976 -0.5933325 -1.3524511 0.27252907 -0.070805594 0.29207146 -1.087576 -0.94075495 -1.4925585 -0.50514644 -0.21387254
9a9ef69ae17023f9657f6f2c7c59bedc 0.68854934 -0.74185234 -0.65578216 0.35940754 -1.028464 -0.4245346 -0.67507654 0.29260507 0.14687651 0.54043275 0.5442493 -0.5177783 -0.15046784 -0.2873117 -0.2516817
589d74392549a5e134271127574acca4 0.8267318 -0.70051605 -0.6070435 0.37435374 -0.88702005 -0.35944164 -0.68320984 0.038712505 0.040404126 0.6404082 0.53781366 -0.47498122 -0.20927256 -0.43340278 -0.4203586
7c1a056a95d8df9e5411a7b4bd48e31b -0.66863835 -0.078204945 0.7773891 -0.16804607 -1.0726309 -0.4258297 -0.15276112 -0.9996857 0.54995537 0.0029276365 0.029196806 -0.058170777 0.42860162 -0.7984204 0.5764109
f7dd16eebfecb0169b3370374beeef5e -0.41341475 1.160582 -0.9175979 0.06998001 -1.0115618 -1.1877683 0.67882925 -0.30159664 0.051662393 0.9571434 0.115274295 -0.27389017 -1.3206868 0.10932199 0.95031273
d14ace5ebfc3e5e4dbd5d83c14a7062c -0.021945769 0.8036709 0.9206118 1.016657 -0.54536426 -0.66125566 -1.3762505 0.35485226 -0.11522338 0.34705296 -0.9405421 -0.83280015 -1.4715037 -0.6287942 -0.16517986
751517ce28fb1a474aa669e7f43eb2d1 0.06330725 0.94075716 0.99404263 1.119314 -0.61747694 -0.57719 -1.4257468 0.18937725 -0.19461727 0.43858832 -0.9396779 -0.75267214 -1.4759635 -0.5346808 -0.24358094
7d4e12cf13fa38da5e7776fedf3ff580 -0.531506 1.1132725 -0.92129415 0.08361985 -0.9147834 -1.3665801 0.6188248 -0.10051277 0.055748448 0.86588633 0.30163231 -0.2547749 -1.3132936 -0.034297768 1.0974636
c5e9eae4fd8a41ec643171fa69742c1b -0.40102157 1.189361 -0.9123868 0.20938617 -0.86389834 -1.1462659 0.6305514 -0.25471625 0.06255036 1.0357988 0.2435953 -0.38292012 -1.2882452 0.06323921 1.1087233
20763c78ff95735a9baefe0461242601 0.79276216 -0.58116114 -0.5957308 0.2658564 -0.917783 -0.3486998 -0.719409 0.15281372 0.2741528 0.61148787 0.5510089 -0.5487901 -0.11655858 -0.3825015 -0.3872196
56f0ea585a86a5e5cf7427157fb7d137 -0.6717254 -0.1180333 0.78963506 -0.105813585 -1.0060712 -0.5269455 -0.17491308 -0.9654121 0.6600375 -0.044983253 -0.010009888 -0.0935624 0.32360113 -0.82406497 0.65225315
0cf3ccf36ce39ebfd15d59aa422d0331 0.8078713 -0.23574772 1.5674796 -0.30859658 -1.2435244 -2.5701954 -0.2515519 0.063807555 -1.2653087 1.2049662 -0.5603602 -0.6302109 0.9864061 0.6243051 0.6557252
ec89c88ffe124ca9cd9fd62ed034d722 0.69748926 -0.5759081 -0.6192444 0.1509169 -0.8912964 -0.38949203 -0.701886 0.18861118 0.29121533 0.62129784 0.5274198 -0.55686843 -0.16583122 -0.36397052 -0.4528189
6e65aea79313532bb8530210668f30df 0.035316627 0.9516642 1.0877737 1.1152742 -0.7426128 -0.52619815 -1.3370451 0.4449425 -0.041801084 0.3163079 -0.94468886 -0.89523786 -1.4341233 -0.54239666 -0.23831937
fa23cdccd4fd2b5371a87465824544e0 -0.51036185 1.1193852 -0.9011358 0.10995271 -1.0865972 -1.0140429 0.5828409 -0.12831526 0.099475354 0.72709984 0.13581665 -0.42679268 -1.2822495 0.045516737 1.1291399
1872158fcc6bb68c7d8c0e0ebf0a9eab -0.383981 1.1186994 -0.9126072 -0.033427455 -0.8953931 -1.1417446 0.49920204 -0.30974022 0.13077031 0.9038701 0.153207 -0.33921528 -1.3407589 0.16317327 1.0922489
cf08bbcc1a458f58a7160090188da789 -0.61058897 -0.22358653 0.7941043 -0.18834284 -0.8521553 -0.45664495 -0.1803011 -0.96286726 0.7070533 0.16063355 -0.027024953 -0.2487549 0.32495746 -0.72634333 0.7243596
5c0ad4424b79a2f8681d6aa063119f2c -0.7103449 -0.2162295 0.7156981 -0.02462444 -0.8546404 -0.41696087 -0.15877503 -1.056023 0.5401639 0.17831698 -0.03619209 -0.16875927 0.3012154 -0.7853391 0.70241725
ac8590dde4b2034dea055f962b086450 0.8480153 -0.5221165 -0.53259504 0.30405205 -0.92849326 -0.21764182 -0.6651023 0.14530697 0.17156819 0.7618265 0.50637436 -0.6357106 -0.1442976 -0.3692111 -0.4085169
6c6cdb3bf35ffb1a06ab56b9dfbf327a 0.02889203 0.8169249 0.9855087 1.0615287 -0.7681193 -0.5621325 -1.3541012 0.3756773 -0.17114885 0.35806566 -1.1578187 -0.85998493 -1.4505038 -0.52694553 -0.1867933
1a40ece97cdc870ce270cbb74b98081d 0.07111686 0.8434677 0.9323021 1.028613 -0.70466644 -0.5420905 -1.3939291 0.26222473 -0.2613853 0.31357342 -0.9620137 -0.7460724 -1.471846 -0.46315792 -0.18242444
f1177c574f7985c080b093c31f8fe56a 0.7919655 -0.45958298 -0.5865381 0.25583565 -0.8811077 -0.4370159 -0.79522526 0.17188716 0.056549735 0.6555439 0.61657494 -0.40512544 -0.1348121 -0.35499105 -0.47991988
49679424c794ce5f4c768b2d7e7d694e -0.5724825 -0.10411406 0.7554555 -0.1548592 -0.9334878 -0.3331311 -0.13251062 -1.0191187 0.6176643 0.20063218 -0.16998987 -0.11957371 0.37570596 -0.8809673 0.65868354
ef7a07f7fb59fc2781c24d517001b938 0.072228916 0.88333863 0.9895879 1.1534741 -0.6100652 -0.5173616 -1.436065 0.16825905 -0.15678346 0.38236403 -0.87646455 -0.7455772 -1.4600836 -0.5169021 -0.23137952
4e0192961ec0c9d72bba4b2c7a2263dd -0.33139816 1.1880563 -0.9358988 -0.00013919004 -1.0216585 -1.2185409 0.51761013 -0.20462252 0.0817496 0.8481481 0.26343775 -0.366028 -1.2758559 0.19061865 1.0049603
0f29973a38448e159440c76ee026d212 0.73555094 -0.6146993 -0.66402316 0.16832857 -0.7619075 -0.48588485 -0.5782758 0.2201879 0.18191776 0.702799 0.48724866 -0.6624065 -0.14962496 -0.576225 -0.52659065
fab46a236ad7e25defd9ff1649c19f90 0.028623352 0.894362 0.92359275 1.0193248 -0.57615435 -0.6698083 -1.4432256 0.31382287 -0.22981468 0.32190096 -0.8743475 -0.8142115 -1.4552718 -0.5650288 -0.15804666
482bfee82a0754939a06a56784223e70 0.81534237 -0.6158223 -0.5242392 0.34424776 -0.91422784 -0.31469423 -0.5858293 0.267496 0.09182174 0.61895 0.5634756 -0.6396961 -0.11836773 -0.34751022 -0.2425392
a635304d17891e13201b5b81b9e258c7 -0.7209473 -0.2721368 0.6530158 -0.15605004 -0.86832845 -0.5080949 -0.011006598 -1.1324154 0.4457415 0.15329877 -0.17479393 -0.12473375 0.32331052 -0.9051589 0.56641316
b3efc705009ccd2eac2971b48302dc7d 0.12483976 0.8956639 0.93671626 0.98306626 -0.5326615 -0.6975521 -1.3646593 0.2753825 -0.15804493 0.3710157 -0.99641234 -0.7989857 -1.4874716 -0.63152814 -0.19499026
dc7ffb24c73083023be956486bd7eb65 0.7850223 -0.6563638 -0.6202147 0.219904 -0.83914226 -0.41112185 -0.6734843 0.23546407 0.21303718 0.6236358 0.49558008 -0.61282045 -0.10311044 -0.47013438 -0.3333988
28c1983b7504859f36fe9bd62991eb90 -0.7359551 -0.15077044 0.71407866 -0.22418821 -0.9423121 -0.56273305 -0.3091211 -0.9482081 0.56741196 -0.0026521077 -0.09151858 -0.0070567555 0.32054108 -0.8575701 0.63092864
cb628d6fe10fbd820633a168c111e191 0.73854315 -0.31557938 1.6292566 -0.30787012 -1.2686113 -2.642702 -0.22829983 0.27603316 -1.2773459 1.1909271 -0.53673226 -0.63986737 0.9870443 0.543015 0.8100889
125828cb832f44c7ec0d52467d742e38 -0.39415413 1.2209761 -0.9423143 -0.015368232 -0.8875423 -1.1703075 0.55459934 -0.38663754 0.06321523 0.95259976 0.18206456 -0.3520136 -1.2989056 0.09250397 0.94074106
078a02e86c924f2230624a36cd835802 -0.6397688 -0.27625117 0.7734123 -0.071344376 -0.81370205 -0.4360632 -0.1169531 -1.0159276 0.61191404 0.14528029 0.040034033 -0.2742136 0.315828 -0.8099893 0.8101718
ba2bd4b0f7de65ca39742ab6f39b520f 2.356388 0.10285941 0.33522046 0.8707062 -1.2615993 -1.6116159 1.5041391 -0.86482507 -0.09479481 -0.78089434 0.10918093 -0.2086432 -1.5376996 -1.4341961 0.64100564
43edb646ea15911341d55a93e8d19cd4 -0.4509527 1.1394396 -0.9837985 -0.012555877 -0.98505086 -1.2846174 0.63298345 -0.30450937 0.06261191 0.84395605 0.21346001 -0.3654059 -1.2898802 0.14056033 0.8955731
a582377a59b35e34f41665196d0830fa -0.42556584 1.012407 -0.9255661 -0.011070183 -0.9479573 -1.0823579 0.69951844 -0.32407895 0.15206774 0.93492323 0.013002648 -0.5535112 -1.3842827 0.17224322 0.9839942
b1706f125b25494576b705863d83c9d6 0.7794077 -0.5209391 -0.4926354 0.3033795 -0.7678953 -0.31441528 -0.53549296 0.13454005 0.32196653 0.72038686 0.60411984 -0.8212472 -0.10131967 -0.3279802 -0.46682808
0122e5ced046733c52b32fd6730dabbe 0.7038554 -0.66104895 -0.5821885 0.37542546 -0.78062624 -0.24934992 -0.56798446 0.10982463 0.18024538 0.7742553 0.58985555 -0.6303467 -0.1798442 -0.42553884 -0.3463475
983a852badfcc1031c57e30393bb1d3a 0.8338877 -0.54920346 -0.57512856 0.35392427 -0.9030414 -0.37158376 -0.77317786 0.17930721 0.12855022 0.6418412 0.66563505 -0.4985648 -0.137944 -0.321455 -0.3250927
876e10e9c5d971762615f342c4715e22 0.017192239 0.7989203 1.0006393 1.1437191 -0.706234 -0.4741589 -1.3564192 0.33695772 -0.12601903 0.4876835 -0.98002136 -0.8186911 -1.4832649 -0.4112417 -0.11260215
1a260ef2a5ff582e3ded489da262381d 0.8334425 -0.6119376 -0.58859545 0.355341 -0.97832227 -0.27485204 -0.72671974 0.21760759 0.18293428 0.6547967 0.50535727 -0.49451214 -0.17462939 -0.34325355 -0.26895526
bac4a7989d0a8e4949503a041d194f37 0.0815157 0.8044973 0.90367794 1.0916983 -0.76104677 -0.5519194 -1.3606633 0.39311782 -0.14485097 0.31258494 -1.0026408 -0.78682643 -1.4166955 -0.5436743 -0.17107648
4f85581a31eadfed23a07f86e9006a3f 0.7532907 -0.59595203 -0.5429642 0.40730396 -0.91933835 -0.45389822 -0.6846219 0.23487797 0.061456695 0.6016135 0.69092655 -0.48101783 -0.11865633 -0.31302124 -0.36996293
7336eedbeea0a0f205d62609cf62e9d7 -0.6842748 -0.2325421 0.70514905 -0.06839175 -0.9478398 -0.5486532 -0.20005485 -0.9963409 0.4247796 0.033448793 0.032740206 -0.005169075 0.4134166 -0.7797558 0.6362423
9110aabdb5b338382ee536f8a7a258e7 -0.3998939 1.2126886 -0.9406787 -0.058078118 -0.9447014 -1.2074505 0.5333295 -0.29397207 0.0382232 0.8573869 0.11691952 -0.47901076 -1.2991356 0.15212958 0.88403064
0bd401c7875b6ace47e7936744040f9f 0.7244477 -0.6242804 -0.6429032 0.26758474 -0.73924565 -0.3900081 -0.61184937 -0.04835887 -0.06341507 0.7613966 0.5003288 -0.5165945 -0.2072352 -0.4226906 -0.50998574
817bf382760f0a8a6bad4b490c3f58b3 -0.71776336 -0.22311069 0.7095992 -0.019275306 -0.9808064 -0.38777825 -0.11972504 -1.0266343 0.6146612 0.12309653 0.058122568 -0.11417318 0.3025152 -0.7293042 0.66733724
5acb806b51e8836876765f79de65029e 0.7606529 -0.6208254 -0.53121495 0.4812703 -0.902014 -0.4284067 -0.6428718 0.26167628 0.2361021 0.59871966 0.6448654 -0.5073137 -0.15337962 -0.30532846 -0.3117148
518cc790aaef8b92d2a24e00cfb10459 -0.42664486 1.2618315 -0.9306609 0.11074339 -0.9442272 -1.2697439 0.46792808 -0.22282845 0.105796754 0.73092127 0.22638738 -0.27413717 -1.3297764 0.04553348 0.98130214
dd72b231ca50334a0a55eb0088cb8e75 0.028572928 0.7457467 0.9126751 1.181614 -0.5667508 -0.6862562 -1.3810332 0.23744164 -0.15994309 0.34112257 -0.92157006 -0.7011505 -1.4946299 -0.5262895 -0.1585076
4a3563fe95356880074b069ba0ef0f48 0.7591065 -0.7742923 -0.6229012 0.14905924 -0.91525006 -0.44230473 -0.579092 0.13189185 0.16871136 0.6568195 0.32532528 -0.5378845 -0.21526803 -0.39311683 -0.50550187
a9d32c87e684700f231c4dd25dff10b8 0.73753816 -0.76759446 -0.668585 0.38893577 -0.7022358 -0.48900446 -0.619676 0.09190139 -0.047508527 0.694819 0.6189594 -0.48387706 -0.21905625 -0.5041978 -0.27327642
d231b0347a5858da5f835b834fad169a -0.35932252 1.2187712 -0.92300534 -0.03752874 -0.93445015 -1.2136239 0.4978583 -0.21764818 0.15180092 0.7779132 0.22045574 -0.41457066 -1.2775469 0.15644732 0.8778221
048d6736b636906af524ef1031e8d03d -0.62085575 -0.022616977 0.7914221 -0.08735428 -1.0791297 -0.46695146 -0.19945908 -0.9790886 0.65800536 -0.027247401 0.07818856 -0.050239824 0.4711583 -0.73093414 0.6081891
29be2ab3d4457d297d4b4bf856d4d8ac 2.1984313 -0.059624285 0.26437253 0.9048076 -1.1671659 -1.5616598 1.6422532 -0.9145223 -0.060987264 -0.73381054 -0.012245328 -0.34662718 -1.6752182 -1.4920003 0.6038071
b7db6fba7987720f7befba84d4d7a9fa 0.7553343 -0.63523674 -0.65714526 0.3605479 -0.8033659 -0.44194674 -0.6272636 0.08188654 0.003248566 0.7062414 0.5383679 -0.509408 -0.20578389 -0.38868564 -0.4125495
e892d0f36183584b3ac7013ed16abf91 0.742981 -0.731869 -0.6261328 0.35784167 -0.9113896 -0.42921704 -0.6589448 0.15472282 -0.0035690535 0.6639806 0.506389 -0.4899382 -0.24446164 -0.36649886 -0.40444532
7b6827e923d7fad12aeeb13406743f90 0.7505034 -0.8008968 -0.6724958 0.36204332 -0.8755207 -0.43230996 -0.59925133 0.060070045 0.07144993 0.66738623 0.41402555 -0.6232568 -0.24403687 -0.30478546 -0.3726703
e99061fcc679655957540a626a6b2811 0.6628064 -0.7068804 -0.6637163 0.38247657 -0.87800467 -0.42628196 -0.6842862 0.11595698 0.013428809 0.69079435 0.5721976 -0.35361028 -0.2275128 -0.37588072 -0.34600016
0252c2a75a51b0cd7cacb98aacf36d6d 0.7952681 -0.7648138 -0.6278059 0.27879038 -0.9343756 -0.40806317 -0.54242235 0.08791314 0.009945805 0.7241557 0.42063773 -0.56258744 -0.25504196 -0.4180292 -0.5328957
ed68b5953e35f4a1c294bea0b71e917a -0.25947604 -0.42559493 1.517386 0.51887614 -1.5625978 -1.2334796 1.0873872 -0.25162864 0.8466854 0.9688245 0.97077364 0.31494758 -2.9320526 0.6097124 -1.4692057
1d5ed8efb9d9c9c5413def51390a77bc 0.005062029 0.88736916 1.0531965 1.0440922 -0.67991644 -0.6251481 -1.4291862 0.37816724 -0.12078982 0.31753418 -0.8572846 -0.7409976 -1.4770693 -0.42545938 -0.13099131
18a05b81e9d1b5146431012950dcfbfd -0.603747 0.92035186 -0.941737 0.1592209 -0.9386683 -1.3258288 0.6049286 -0.08597318 -0.0121708475 0.837469 0.2446658 -0.26279476 -1.3065648 0.07818474 1.1011049
867f7285348016a5b2840f45e4318e8e 0.709351 -0.3031218 1.5680037 -0.19916491 -1.3547037 -2.5017068 -0.28463244 0.2866912 -1.2708687 1.2177163 -0.62011725 -0.6050982 0.9857995 0.6618863 0.7888898
e2df8527436472719b2b4e24c5ab666c -0.4867483 1.0704571 -0.92469937 0.1260952 -1.0066445 -1.1007249 0.68706816 -0.19290061 0.09955284 0.80877084 0.14513724 -0.588337 -1.2581215 0.2037816 0.947289
a99626870da606f86a7e95d564406fd5 -0.6428475 -0.14793257 0.70997626 -0.072833754 -0.93141395 -0.44392878 -0.11865587 -0.9385638 0.6107271 0.043957256 -0.03858301 -0.11604734 0.33467588 -0.7873025 0.71515006
2335aac992f702b57278b536e395580b 0.7469345 -0.7186362 -0.653665 0.32065296 -0.8646583 -0.32203227 -0.62717247 0.1438159 0.09327464 0.6845945 0.45719403 -0.638137 -0.25219458 -0.3632233 -0.28551948
34abe7a78253f54a7a338a30c31f8e8a -0.6058187 -0.20294958 0.7056442 -0.14000289 -0.9807028 -0.56459296 -0.3376564 -1.0626134 0.6178741 -0.0653842 -0.026585134 -0.026587382 0.33138454 -0.6863922 0.7385249
3ca257553ef6b041500afeede190c66b 0.75773853 -0.5830452 -0.63689923 0.2707261 -0.9690206 -0.2943981 -0.62534255 0.20876856 0.17796296 0.6344627 0.44398454 -0.5760736 -0.18885292 -0.40495306 -0.39903447
5f5a76fa7b0700803d2d2eb3ac7d0d73 0.83917356 -0.57431424 -0.6652988 0.2122611 -0.82922584 -0.32848868 -0.570316 0.009888036 0.12701157 0.7009548 0.4663718 -0.689305 -0.21896328 -0.41025972 -0.52804077
0deb5ba13cf12a30d96cd7508ce0f48a -0.6079949 -0.23476408 0.69097763 -0.0059349546 -0.90546775 -0.34263834 -0.13454662 -1.1123201 0.51878226 0.16546081 -0.0886595 -0.14571819 0.24630988 -0.72583365 0.7758706
29aa1222f5f1934312ea8629e7c4be5d -0.44875968 1.1520047 -0.89752567 0.16445118 -1.0645589 -0.9947835 0.70156926 -0.27825403 -0.008630687 0.9003651 0.24305059 -0.31163415 -1.2614326 0.15647008 0.9821234
670b7d8a2b7ac31d452ac5b1cb5defd2 -0.028915722 0.729564 1.0211419 1.0281316 -0.69357574 -0.6420557 -1.3845283 0.35932028 -0.09419852 0.24704602 -0.96293956 -0.8244834 -1.4412584 -0.47155806 -0.14585514
d199a56e9279c3f10a4cba6875854904 -0.5752707 -0.17875782 0.74349916 -0.091442615 -0.98648727 -0.35113603 -0.17453049 -1.044516 0.6436994 0.079115435 -0.025515165 -0.13634339 0.32607275 -0.8146344 0.7307853
ae8a8e2049796b72a525db7ebfc61216 0.7549264 -0.7869732 -0.6708152 0.23539227 -0.95484513 -0.41450882 -0.57863504 0.26756403 0.1356137 0.5901058 0.28972104 -0.59523207 -0.22073925 -0.4504218 -0.35902563
21d3eeb48a2591bce340cf2c1580f0bf -0.65965796 -0.24368277 0.68065333 -0.1561177 -0.9763112 -0.34560183 -0.14734755 -1.0839936 0.57918924 0.16291735 -0.06354979 -0.19556391 0.32149705 -0.7339017 0.7266336
881a152b4a5fbe84b02bc1bd21aea7d7 -0.50565565 1.0363852 -0.95623237 0.08525213 -0.8181003 -1.4564288 0.5335865 -0.18660197 0.0526232 0.76556236 0.33447203 -0.18355018 -1.3588101 -0.025204541 1.036532
